{"layer1": {"weights": [[0.018596533685922623, 0.04327259212732315, 0.023952782154083252, 0.04576863348484039, 0.023626741021871567, 0.02507784217596054, 0.01999371126294136, 0.042486365884542465, 0.04955044388771057, 0.029147880151867867, 0.057382628321647644, 0.04916810244321823, 0.02432188391685486, 0.05354774743318558, 0.03501204401254654, 0.00927890744060278, 0.05124850943684578, 0.02593586966395378, 0.0418010912835598, 0.013365239836275578, 0.04233180359005928, 0.02351120114326477, 0.016145262867212296, 0.039852749556303024, 0.05286816880106926, 0.05756543576717377, -0.0035645384341478348, 0.0028441937174648046, -0.0034468562807887793, 0.027818713337183, 0.005918984301388264, 0.0044682822190225124, 0.045184213668107986, 0.00945398397743702, 0.036540623754262924, 0.01911916770040989, 0.020976293832063675, 0.0009920928860083222, 0.01826106570661068, -0.005717651918530464, 0.02620927430689335, 0.010912373661994934, 0.014455568976700306, 0.037908539175987244, 0.06468626856803894, -0.006279482506215572, 0.043794963508844376, -0.021412385627627373, 0.0007209647446870804, 0.01706743612885475, 0.023004423826932907, 0.029346784576773643, 0.03326050564646721, 0.04183763638138771, 0.05253753438591957, -1.153921039076522e-05, 0.027604825794696808, 0.04059629887342453, 0.00881674699485302, 0.019833579659461975, 0.007506979629397392, 0.01741526462137699, 0.04122806712985039, 0.0340399295091629, 0.010050555691123009, 0.010812941007316113, -0.031801313161849976, -0.025741279125213623, 0.043857306241989136, 0.016550477594137192, 0.04424380138516426, 0.03399944305419922, 0.02466314099729061, -0.0029304276686161757, -0.0071429479867219925, -0.03501563519239426, 0.0005241676699370146, -0.016696076840162277, 0.042437825351953506, 0.04925635829567909, 0.009145400486886501, 0.005421107169240713, 0.010553554631769657, -0.0007879419717937708, -0.009790760464966297, 0.04120036959648132, 0.027419161051511765, 0.029503922909498215, 0.023806888610124588, -0.0025098356418311596, -0.013356294482946396, -0.03215162456035614, -0.0018427463946864009, -0.03499334305524826, -0.04462814703583717, -0.0866284891963005, -0.07821401208639145, -0.06087788939476013, -0.05333946645259857, -0.019547084346413612, -0.03227183222770691, -0.034295521676540375, 0.011623277328908443, -0.059167828410863876, -0.05507635325193405, -0.037391215562820435, 0.011613529175519943, -0.050686948001384735, -0.020160885527729988, 0.07692103832960129, 0.006642237771302462, 0.03756316751241684, 0.0528990663588047, 0.006223373115062714, 0.020502829924225807, 0.04735223203897476, 0.05268516391515732, 0.021588437259197235, -0.031178371980786324, 0.0015953935217112303, -0.013543467037379742, -0.06145690754055977, -0.08380869776010513, -0.07319772988557816, -0.11972251534461975, -0.11528873443603516, -0.17800061404705048, -0.02964513562619686, -0.06878349184989929, -0.07230163365602493, -0.07676014304161072, -0.13932529091835022, -0.16721327602863312, -0.14013370871543884, -0.13247402012348175, -0.010626678355038166, 0.01647525280714035, 0.06358592212200165, 0.05575712025165558, -0.017985651269555092, 0.01807471364736557, 0.033794745802879333, 0.0025263677816838026, 0.002044845139607787, 0.03212694078683853, 0.03406889736652374, 0.017381880432367325, -0.025464124977588654, -0.053386468440294266, -0.0684690922498703, -0.006561034359037876, 0.022921094670891762, 0.029015423730015755, -0.00650061434134841, -0.051654789596796036, -0.12493167072534561, -0.1417934000492096, -0.06434169411659241, -0.013540375977754593, -0.015675801783800125, -0.04480140283703804, -0.0024708423297852278, -0.004029942210763693, 0.03223670274019241, 0.048490285873413086, 0.05264531821012497, 0.03770310431718826, 0.04241509363055229, 0.024598218500614166, 0.01683848723769188, 0.025918085128068924, 0.03247993066906929, -0.010334416292607784, 0.00048680295003578067, 0.02729525975883007, -0.006409715861082077, -0.04704446345567703, 0.012688878923654556, 0.06076568365097046, 0.02987639605998993, 0.05781284347176552, 0.027103818953037262, -0.0005798152997158468, 0.02558930590748787, 0.029631828889250755, 0.041758883744478226, 0.01455659605562687, 0.009104516357183456, 0.009018322452902794, 0.11307453364133835, 0.006219441071152687, 0.06865240633487701, 0.10398535430431366, 0.0873115286231041, 0.07631633430719376, 0.0003959592431783676, 0.026067527011036873, 0.010587891563773155, 0.009251205250620842, 0.034408606588840485, 0.007490185089409351, -0.019485263153910637, 0.04914373531937599, -0.02650250308215618, -0.00868397206068039, 0.033562034368515015, 0.05235893279314041, 0.04227742180228233, 0.06786098331212997, 0.056047841906547546, 0.04092607647180557, 0.06653038412332535, 0.10451917350292206, 0.07796729356050491, 0.06545256078243256, 0.02166588231921196, -0.011469962075352669, 0.11565765738487244, 0.07161051034927368, 0.107516348361969, 0.08781076967716217, 0.07509202510118484, 0.06907904893159866, 0.06079062074422836, 0.021934334188699722, 0.012583895586431026, 0.027462251484394073, 0.02247810922563076, -0.002862174529582262, -0.02532443031668663, -0.04064744710922241, 0.019723830744624138, 0.03415915369987488, 0.07165085524320602, 0.05188300460577011, 0.00539631862193346, 0.029722092673182487, 0.048566728830337524, 0.03631041944026947, 0.027527282014489174, 0.09074445068836212, 0.06193546950817108, 4.736037226393819e-06, -0.03609742969274521, -0.01834932528436184, 0.030645009130239487, 0.04631103202700615, 0.0852508544921875, 0.11221501231193542, 0.09266394376754761, 0.020487211644649506, 0.03331572189927101, 0.038600705564022064, 0.018349090591073036, 0.038752585649490356, 0.007661402225494385, -0.032456956803798676, -0.051687274128198624, -0.037797536700963974, 0.00541882636025548, 0.026010382920503616, 0.05054846033453941, 0.003375787055119872, 0.0010121173691004515, -0.005661977455019951, 0.04616042599081993, -0.00465749017894268, 0.016357818618416786, -0.0043343910947442055, 0.0079799834638834, -0.03411560133099556, -0.039751458913087845, -0.05080882087349892, -0.04843851178884506, -0.024774974212050438, 0.047860994935035706, 0.16178059577941895, 0.1323215216398239, 0.035959642380476, 0.024240795522928238, 0.00030202974448911846, 0.03804262727499008, 0.062441300600767136, 0.04601834714412689, -0.012622863054275513, -0.025787482038140297, -0.0007249349728226662, 0.07213139533996582, 0.02512311562895775, 0.009422726929187775, 0.02274378202855587, 0.04916318506002426, 0.04479219391942024, 0.04812627285718918, 0.04134625196456909, -0.02403784915804863, 0.05814436450600624, 0.05377262085676193, 0.005450587719678879, -0.0409252792596817, -0.07213467359542847, 0.018106911331415176, 0.07558377832174301, 0.10888136178255081, 0.16711361706256866, 0.1753665804862976, 0.0743165910243988, 0.03611033782362938, 0.04642096534371376, 0.014757895842194557, 0.05297165736556053, 0.034374795854091644, -0.041638072580099106, 0.06842324882745743, 0.08246277272701263, 0.08683056384325027, 0.03524518013000488, -0.008485645055770874, 0.04638594761490822, 0.014468533918261528, -0.018321096897125244, 0.034454669803380966, 0.055418577045202255, -0.025030504912137985, 0.08685802668333054, 0.056761983782052994, -0.021979540586471558, -0.06924036145210266, -0.06063750013709068, 0.003578650765120983, 0.10991095006465912, 0.1483728289604187, 0.20644037425518036, 0.16978898644447327, 0.12268585711717606, 0.013390759006142616, 0.01158569660037756, 0.05993802100419998, 0.014869066886603832, 0.006304714363068342, 0.02518582157790661, 0.07847330719232559, 0.02559862658381462, 0.002418710384517908, 0.03185000643134117, 0.07499606162309647, -0.004897243808954954, 0.0057260156609117985, -0.05895017832517624, 0.00016834649431984872, -0.002980700694024563, -0.006489184219390154, 0.0075613767839968204, 0.01348557136952877, -0.035493362694978714, -0.0368061438202858, -0.06500069051980972, -0.02479393593966961, 0.07259228080511093, 0.03399078547954559, 0.0719035342335701, 0.09110745042562485, 0.10530794411897659, 0.020954187959432602, 0.02895946241915226, 0.01354208867996931, 0.003593549830839038, 0.024542704224586487, 0.06089988723397255, 0.07201065868139267, -0.03142015263438225, 0.00023467485152650625, 0.08426835387945175, 0.10381270200014114, 0.025902049615979195, -0.006390977185219526, -0.07413219660520554, -0.07060320675373077, -0.08016223460435867, -0.059797607362270355, -0.13966801762580872, 0.00410032644867897, -0.0636804923415184, -0.04357781261205673, -0.04431933909654617, 0.125258207321167, 0.13781994581222534, 0.09923607856035233, 0.07705578953027725, 0.0693335235118866, 0.05465260148048401, 0.04329691082239151, 0.01997033879160881, 0.009918718598783016, 0.01783861592411995, -0.004514903761446476, 0.0324878916144371, -0.014380721375346184, 0.011262135580182076, 0.05616629868745804, 0.11390355229377747, 0.06803620606660843, -0.013286342844367027, -0.10289566218852997, -0.13518740236759186, -0.14828327298164368, -0.06498243659734726, -0.07905450463294983, -0.08549107611179352, -0.012879319489002228, 0.07426603883504868, 0.07993635535240173, 0.1006491407752037, 0.12737388908863068, 0.042922355234622955, 0.06354621797800064, 0.09151827543973923, 0.013438371941447258, 0.0872933641076088, 0.056337494403123856, 0.014196114614605904, 0.01186527032405138, 0.03496444597840309, 0.013756734319031239, 0.03931265324354172, 0.0018684242386370897, -0.012858213856816292, 0.07139955461025238, 0.10238378494977951, -0.011967710219323635, -0.01289943978190422, -0.06943094730377197, -0.1597423553466797, -0.10521214455366135, -0.05539461597800255, -0.055509600788354874, -0.006347160320729017, 0.03897299990057945, 0.026249682530760765, 0.06669478863477707, 0.07538560032844543, 0.06118786707520485, 0.06371471285820007, 0.055883992463350296, 0.07039719074964523, -0.029650896787643433, 0.06104078143835068, 0.010944128036499023, 0.004636600147932768, 0.05193993076682091, 0.007641274482011795, -0.0012492557289078832, 0.04240037500858307, -0.00766383484005928, -0.04636387154459953, -0.006279158405959606, 0.04740617051720619, 0.04320843890309334, 0.049926646053791046, -0.0005550764035433531, -0.023868760094046593, -0.018825143575668335, -0.012722287327051163, 0.03116127848625183, -0.026324016973376274, -0.06931097060441971, -0.09557950496673584, -0.04605652019381523, 0.06222385913133621, 0.03702404722571373, 0.019077442586421967, -0.0034618722274899483, -0.02406204491853714, 0.0022987269330769777, 0.04427050054073334, 0.011209411546587944, 0.016414519399404526, 0.004666544031351805, -0.005118409637361765, -0.02787058614194393, 0.0031665528658777475, 0.020359499379992485, 0.011870888993144035, 0.003927982412278652, 0.10293406993150711, 0.10118886083364487, 0.11482399702072144, 0.09743636846542358, 0.06832530349493027, 0.04110363870859146, -0.00940774381160736, -0.018338365480303764, -0.06264124065637589, -0.09330099076032639, -0.1238887682557106, -0.02236374095082283, 0.06718607991933823, 0.0032323594205081463, -0.029961097985506058, 0.010319692082703114, 0.0407320111989975, 0.006568256299942732, 0.05387088283896446, 0.04048839583992958, -0.006723250728100538, 0.05647924914956093, 0.043088652193546295, -0.010503546334803104, -0.08867981284856796, -0.07557793706655502, -0.0050169238820672035, 0.008549551479518414, 0.08933234214782715, 0.08924885839223862, 0.08466342836618423, 0.08852185308933258, 0.10491104423999786, 0.058583322912454605, -0.045778870582580566, -0.07018227875232697, -0.06138063222169876, -0.10175228863954544, -0.08192330598831177, -0.047233160585165024, 0.010061248205602169, -0.0736931785941124, -0.03976072743535042, 0.006666874513030052, 0.027529887855052948, -0.01837720163166523, 0.0031580973882228136, -0.008971271105110645, 0.024425998330116272, 0.03561859205365181, 0.01627851463854313, 0.04262808710336685, -0.07977693527936935, -0.09701436012983322, -0.036774199455976486, 0.0071683842688798904, 0.07203076034784317, 0.08654800802469254, 0.03221743553876877, 0.009033579379320145, 0.09128737449645996, 0.03674585744738579, 0.019377734512090683, -0.03857869282364845, -0.07209985703229904, -0.05757681652903557, 0.017403632402420044, -0.021377192810177803, -0.039401330053806305, -0.02814757078886032, -0.02343757450580597, 0.05619450658559799, -0.016794556751847267, 0.018175169825553894, 0.028159962967038155, 0.03445994108915329, 0.006374012678861618, 0.06202111020684242, 0.03611977770924568, 0.007352754473686218, -0.02047938108444214, -0.003922635689377785, -0.0392761304974556, 0.05182763934135437, 0.13382335007190704, 0.12593747675418854, 0.046581096947193146, -0.03537454828619957, 0.010988120920956135, 0.056755248457193375, -0.05972586199641228, -0.038898419588804245, -0.06901846826076508, -0.046053968369960785, -0.04619569331407547, 0.01055200956761837, -0.04829934611916542, -0.032247476279735565, -0.031367409974336624, 0.058244988322257996, 0.03681901469826698, 0.018130382522940636, 0.03756034001708031, 0.046077482402324677, 0.05566122382879257, 0.020809391513466835, 0.041707079857587814, 0.056724898517131805, -0.042204421013593674, 0.018703263252973557, 0.04125988110899925, 0.07885153591632843, 0.01519039086997509, 0.03197639808058739, -0.0536913126707077, -0.06657811254262924, -0.06623612344264984, -0.07636070996522903, -0.06427252292633057, -0.09906195849180222, -0.11116524785757065, -0.1111530289053917, -0.12280770391225815, -0.027321120724081993, -0.05047209560871124, -0.0008748721447773278, 0.008171373046934605, 0.0369139164686203, 0.060001276433467865, 0.031005412340164185, 0.026433024555444717, 0.013406869024038315, 0.027914321050047874, 0.05853714421391487, 0.039974212646484375, 0.061788879334926605, 0.03942137211561203, -0.014544920064508915, 0.03581470996141434, 0.015463504940271378, -0.007376299239695072, -0.019725937396287918, -0.03168904781341553, 0.003718708176165819, 0.03559357672929764, 0.04538986459374428, -0.06223510950803757, -0.09265639632940292, -0.12237933278083801, -0.07592777907848358, -0.013319678604602814, 0.046669065952301025, -0.02317640744149685, -0.061892930418252945, 0.08039000630378723, 0.07950440794229507, 0.07620985060930252, 0.0556434690952301, 0.042944956570863724, -0.0009019796270877123, 0.04617508500814438, -0.006268728524446487, 0.005009368993341923, 0.018700525164604187, 0.010718806646764278, -0.018843499943614006, 0.055946581065654755, 0.07787515223026276, 0.08393016457557678, 0.012299423106014729, 0.021299777552485466, 0.06732085347175598, 0.07077688723802567, 0.020444722846150398, -0.034746889024972916, -0.01610512286424637, 0.03142118081450462, 0.05068608373403549, 0.053915511816740036, 0.09196339547634125, 0.03935045748949051, 0.02530064806342125, 0.017683371901512146, 0.026083262637257576, 0.05179600417613983, 0.023893553763628006, 0.03450210019946098, 0.019262805581092834, 0.01429529394954443, -0.008357817307114601, 0.013023068197071552, 0.010599500499665737, 0.031771350651979446, 0.005342002026736736, 0.04890567809343338, 0.036825817078351974, 0.07087180018424988, 0.009346310980618, 0.06286212056875229, 0.06671755015850067, -0.013064989820122719, -0.028429759666323662, -0.03442516177892685, 0.05753567814826965, 0.057961732149124146, 0.05274619907140732, 0.07521910965442657, 0.09160951524972916, 0.04814273864030838, 0.03383564203977585, 0.0071237231604754925, 0.04482525214552879, 0.04588290676474571, 0.016569087281823158, 0.031464215368032455, -0.0009529852541163564, 0.04302869737148285, 0.00717587023973465, -0.005341742653399706, -0.0007596950745210052, 0.0828896015882492, 0.033583927899599075, 0.04691678658127785, 0.0354771614074707, -0.01963185705244541, -0.047169771045446396, 0.01150523591786623, 0.003490759991109371, -0.030809378251433372, 0.014843873679637909, 0.0005835106712765992, 0.09245338290929794, 0.017256436869502068, 0.07483059912919998, 0.08985660970211029, 0.1430625319480896, 0.07406206429004669, 0.010108022950589657, 0.04926398769021034, 0.0358363501727581, 0.04328729957342148, -0.00983128510415554, 0.0029008230194449425, 0.05411766842007637, -0.00896043423563242, 0.0347198061645031, 0.04949459433555603, 0.00033420161344110966, 0.001402591005899012, 0.015027784742414951, -0.007271016016602516, 0.033170923590660095, 0.02094576135277748, 0.04777310788631439, 0.02984301559627056, -0.0003768472815863788, 0.10337969660758972, 0.10773008316755295, 0.08822542428970337, 0.05352891609072685, 0.05073125287890434, 0.040923018008470535, 0.032544806599617004, 0.038011178374290466, 0.04714902117848396, 0.044234540313482285, -0.015991471707820892, 0.05560404062271118, 0.061471953988075256, 0.02131105214357376, 0.050342317670583725, 0.045734189450740814, 0.02736096829175949, 0.05172896012663841, -0.002993399277329445, 0.007685024756938219, 0.019289610907435417, 0.058720912784338, 0.0394105538725853, 0.07366412878036499, 0.06325966119766235, 0.008806201629340649, 0.017129292711615562, 0.05316416919231415, 0.006493214052170515, 0.04691861942410469, -0.006111377850174904, 0.03935209661722183, 0.012464192695915699, 0.013694537803530693, -0.0004920463543385267, 0.019162727519869804, 0.0322931669652462, 0.029485758394002914, 0.042454417794942856, 0.04021415486931801, 0.015184876509010792, 0.009892427362501621, 0.060021914541721344, 0.056845810264348984], [0.04174453765153885, 0.044753946363925934, 0.081341952085495, 0.039883919060230255, 0.023624897003173828, 0.04788648337125778, 0.047090835869312286, 0.08422643691301346, 0.05728679895401001, 0.050245851278305054, 0.042510487139225006, 0.05150482803583145, 0.058625586330890656, 0.03732091933488846, 0.03594367206096649, 0.05692261457443237, 0.03855817764997482, 0.05010201036930084, 0.04171197861433029, 0.022318709641695023, 0.06323989480733871, 0.06448103487491608, 0.06737321615219116, 0.06077328324317932, 0.07650274783372879, 0.04935586452484131, 0.038705237209796906, 0.05491867661476135, 0.08610711991786957, 0.0893574208021164, 0.08509667217731476, 0.08198262006044388, 0.062403686344623566, 0.06680236011743546, 0.05814559385180473, 0.02770618163049221, 0.04591604694724083, 0.09081052243709564, 0.06397563964128494, 0.049600452184677124, 0.06055137515068054, 0.058176279067993164, 0.09203986823558807, 0.03543064370751381, 0.07811282575130463, 0.06195756793022156, 0.08634447306394577, 0.07629038393497467, 0.07838761061429977, 0.04090506583452225, 0.023527422919869423, 0.05656680464744568, 0.05903811752796173, 0.056186243891716, 0.032876767218112946, 0.031810738146305084, 0.04073677957057953, 0.0459224209189415, 0.026703553274273872, 0.07034257799386978, 0.04525512084364891, 0.03719744086265564, 0.09066372364759445, 0.06489865481853485, 0.09070360660552979, 0.08469002693891525, 0.030231144279241562, 0.02713991142809391, 0.0511232390999794, 0.08027037978172302, 0.09708578139543533, 0.07095808535814285, 0.091934435069561, 0.06402351707220078, 0.02705972269177437, 0.06917723268270493, 0.06675345450639725, 0.07903414964675903, 0.017242223024368286, 0.06911507248878479, 0.07637067884206772, 0.02445576712489128, 0.02292344532907009, 0.05005006492137909, 0.08391512185335159, 0.08799997717142105, 0.0765284076333046, 0.034072428941726685, 0.03115391731262207, 0.03172816336154938, 0.06035150587558746, 0.07790857553482056, 0.06320245563983917, 0.08625666052103043, 0.040806617587804794, 0.011707490310072899, -0.007656071800738573, -0.011582407169044018, 0.057560693472623825, 0.10021725296974182, 0.0651995986700058, 0.02659428119659424, -0.024858854711055756, -0.00403217040002346, -0.020162014290690422, 0.03282403573393822, 0.023465942591428757, 0.03626035153865814, 0.07208090275526047, 0.05655554309487343, 0.05699027329683304, 0.09063729643821716, 0.03940347582101822, 0.053572289645671844, 0.06785565614700317, 0.08203744888305664, 0.0766243264079094, 0.06267190724611282, 0.05095819756388664, 0.0671808049082756, 0.05322181433439255, 0.034963589161634445, -0.0007598461816087365, -0.011334254406392574, 0.014791314490139484, 0.05522402003407478, 0.031545501202344894, 0.022937722504138947, 0.06807965785264969, 0.08111424744129181, 0.032969847321510315, -0.005682623945176601, 0.03348809853196144, 0.0853617936372757, 0.062134742736816406, 0.0989721491932869, 0.04423782601952553, 0.09151715040206909, 0.051310185343027115, 0.06969496607780457, 0.04542430490255356, 0.0719234049320221, 0.03605812415480614, 0.08149208128452301, 0.03162846714258194, 0.06407592445611954, 0.060958798974752426, 0.03814717382192612, 0.0264149010181427, 0.02828480675816536, 0.013639599084854126, 0.03786951303482056, 0.0005857647047378123, -0.04625190794467926, -0.020502964034676552, 0.05237221345305443, 0.023058900609612465, 0.07701656967401505, 0.03834144026041031, 0.08126792311668396, 0.04128572344779968, 0.1042199656367302, 0.023175781592726707, 0.022090043872594833, 0.08474225550889969, 0.041369061917066574, 0.05862593650817871, 0.06588780879974365, 0.08343707770109177, 0.06228235363960266, 0.0692332312464714, 0.053215011954307556, 0.04244721308350563, -0.0304469782859087, 0.0329129621386528, -0.004830759484320879, 0.03307073563337326, 0.04887956753373146, 0.03079061768949032, 0.039341267198324203, 0.06532097607851028, -0.0006680364022031426, -0.057280417531728745, 0.0007658552494831383, -0.02521258220076561, 0.03131517395377159, -0.005525912158191204, 0.04861939325928688, 0.0420592837035656, -0.020955873653292656, -0.029955441132187843, 0.025286244228482246, 0.08099404722452164, 0.06854649633169174, 0.07047276943922043, 0.05698544532060623, 0.026050325483083725, 0.06812416762113571, 0.07526637613773346, 0.07711444050073624, 0.03313756361603737, 0.00864040944725275, 0.0688476637005806, 0.03912996128201485, 0.0441322922706604, 0.08405227214097977, 0.09993088245391846, 0.030631083995103836, 0.0013428112724795938, -0.0584232360124588, -0.06858808547258377, -0.10468031466007233, -0.07384013384580612, -0.0626489594578743, -0.01309026125818491, -0.01625041477382183, -0.016222428530454636, -0.030474238097667694, -0.02597982808947563, -0.04311930015683174, 0.04186287894845009, 0.0859799012541771, 0.018863344565033913, 0.09084847569465637, 0.06752518564462662, 0.05273927003145218, 0.027107762172818184, 0.042704805731773376, 0.03689141198992729, 0.08959685266017914, 0.13763535022735596, 0.0656815767288208, 0.05172030255198479, 0.07614284753799438, 0.024569645524024963, -0.01639222912490368, -0.049471642822027206, -0.11993494629859924, -0.05357709899544716, -0.03093794360756874, 0.02822975255548954, -0.0032894527539610863, -0.047902680933475494, -0.024434024468064308, 0.01089793536812067, -0.0017069255700334907, 0.02047128602862358, 0.016457298770546913, 0.06573159247636795, 0.0658709928393364, 0.04240962490439415, 0.03112771548330784, 0.09154918789863586, 0.02466435916721821, 0.025566723197698593, 0.07177853584289551, 0.1146722286939621, 0.06353490799665451, 0.04127013683319092, 0.062458064407110214, 0.07523790746927261, 0.08994363248348236, -0.027835143730044365, -0.07338076084852219, -0.08865267038345337, -0.0854746624827385, 0.003097503911703825, 0.012160745449364185, -0.08540493994951248, -0.10313763469457626, -0.07725990563631058, -0.033189382404088974, 0.01111716777086258, 0.13359121978282928, 0.0855998620390892, 0.05958651378750801, 0.0005902990233153105, 0.05903095379471779, 0.053934793919324875, 0.06542522460222244, 0.08313878625631332, 0.023921389132738113, 0.07284320890903473, 0.05691785365343094, 0.115390844643116, 0.009343652054667473, 0.011104347184300423, 0.03816140815615654, 0.11848720163106918, 0.07845292240381241, -0.026458261534571648, -0.061375707387924194, -0.06261788308620453, -0.04234668239951134, -0.031104378402233124, -0.03722955286502838, -0.13930441439151764, -0.21384981274604797, -0.14916574954986572, -0.02523125149309635, 0.05758082494139671, 0.16025324165821075, 0.06571627408266068, 0.08843038976192474, 0.061193376779556274, 0.09123323857784271, 0.02564002387225628, 0.04479604959487915, 0.04814041405916214, 0.09249942004680634, 0.05191909521818161, 0.04514260217547417, 0.10205152630805969, 0.0554787740111351, 0.013684672303497791, -0.02838519588112831, 0.035505346953868866, -0.04289378598332405, -0.03147565945982933, -0.046096980571746826, 0.024839138612151146, 0.047520507127046585, 0.06400451064109802, -0.04515387490391731, -0.03864527493715286, 0.0046304939314723015, -0.05243095010519028, 0.015722066164016724, 0.07401906698942184, 0.09692006558179855, 0.03929954022169113, 0.08559281378984451, 0.1065564826130867, 0.029110228642821312, 0.0793517529964447, 0.0603431761264801, 0.06483794748783112, 0.08147157728672028, 0.0655040368437767, 0.07109719514846802, 0.0712297186255455, 0.06366528570652008, -0.00861559808254242, -0.060422226786613464, -0.02696015127003193, -0.05428765341639519, 0.07028718292713165, -0.00812800694257021, -0.011120074428617954, 0.07110293954610825, 0.008587606251239777, 0.00294695096090436, 0.06757745891809464, 0.013672304339706898, 0.010665380395948887, -0.06371838599443436, 0.009145514108240604, 0.07055176794528961, 0.018587511032819748, 0.06639531999826431, 0.08605529367923737, 0.03522546589374542, 0.03544244542717934, 0.061737362295389175, 0.02848791517317295, 0.05363677442073822, 0.07735539227724075, 0.05193857476115227, 0.05150171369314194, 0.04894421249628067, 0.011071494780480862, -0.015732310712337494, 0.036821041256189346, 0.0022525754757225513, -0.003043463220819831, 0.012565959244966507, -0.0011490450706332922, -0.026517139747738838, -0.00484456866979599, -0.007180739194154739, 0.017987361177802086, 0.0009584531071595848, -0.023562103509902954, 0.010682637803256512, 0.006255802698433399, 0.06413881480693817, 0.033293288201093674, -0.010767383500933647, 0.12180884927511215, 0.06276841461658478, 0.06898533552885056, 0.0513664074242115, 0.04048026353120804, 0.08356092125177383, 0.0418095737695694, 0.045854903757572174, 0.03380400314927101, -0.025263164192438126, -0.020657265558838844, 0.13508719205856323, 0.05236746370792389, 0.02893754467368126, 0.04486064985394478, 0.030478958040475845, 0.02825186215341091, 0.01570596732199192, -0.01556203793734312, 0.02183075062930584, 0.04780988022685051, 0.015202402137219906, 0.05198168382048607, 0.04151645302772522, 0.05734037235379219, 0.08813328295946121, 0.10264212638139725, -0.028211988508701324, 0.024670850485563278, 0.0877743810415268, 0.09037210047245026, 0.06509732455015182, 0.08474372327327728, 0.04355628043413162, 0.07359779626131058, 0.09992805868387222, 0.04002876579761505, 0.0009045503102242947, 0.11539877206087112, 0.08156777173280716, 0.06040772423148155, 0.07333771884441376, 0.013792361132800579, 0.07273148000240326, 0.08624853193759918, 0.03492305800318718, 0.008340258151292801, 0.05516337975859642, 0.054875366389751434, -0.003506934968754649, 0.015087675303220749, 0.014365092851221561, 0.0720306932926178, 0.10103468596935272, 0.11960116028785706, -0.016839275136590004, -0.011086364276707172, 0.12388245016336441, 0.09746712446212769, 0.08206817507743835, 0.031763315200805664, 0.02458314038813114, 0.0341581329703331, 0.09796220064163208, 0.03561890125274658, -0.058331653475761414, 0.1195073202252388, 0.16728831827640533, 0.11219502240419388, 0.039092183113098145, 0.013795188628137112, 0.0054642995819449425, 0.02801702357828617, -0.038187120109796524, -0.050927214324474335, -0.015362436883151531, -0.022833092138171196, -0.06536651402711868, -0.09412182122468948, -0.025213537737727165, 0.022549854591488838, 0.05759183317422867, 0.0879860669374466, 0.0698268860578537, 0.06717069447040558, 0.047945696860551834, 0.05531131848692894, 0.08103877305984497, 0.024783900007605553, 0.03126901760697365, 0.026265064254403114, 0.023478960618376732, 0.06546920537948608, -0.003909618128091097, 0.0644412711262703, 0.11442428082227707, 0.0945645272731781, 0.06318803876638412, -0.08635394275188446, -0.0877433717250824, -0.03348864987492561, -0.010402172803878784, -0.029145164415240288, -0.05160113424062729, -0.03137707710266113, -0.06673197448253632, -0.035820625722408295, 0.026002271100878716, -0.01765025034546852, 0.03705611452460289, 0.015477881766855717, 0.050656918436288834, 0.1161421537399292, 0.08389559388160706, 0.06849105656147003, 0.042623888701200485, 0.06805921345949173, 0.03490648418664932, 0.03847534954547882, -0.024346385151147842, -0.000730915751773864, -0.04044300690293312, 0.0967775285243988, 0.04430980980396271, 0.03426079824566841, -0.01895766891539097, -0.07582308351993561, -0.10417546331882477, -0.05127866193652153, -0.028183380141854286, -0.03515143692493439, -0.11864716559648514, -0.05700227990746498, -0.03666876256465912, -0.07812661677598953, 0.048304855823516846, 0.04338444769382477, -0.016971437260508537, -0.03805786371231079, 0.08044992387294769, 0.016560915857553482, 0.06096860021352768, 0.04046006128191948, 0.02574211359024048, 0.0717320591211319, 0.08940808475017548, 0.07048992812633514, 0.0008650206727907062, -0.043636467307806015, -0.06122570484876633, 0.07426263391971588, -0.013152193278074265, 0.016517706215381622, -0.057818129658699036, -0.1443863958120346, -0.07609205693006516, -0.047235775738954544, -0.04343077540397644, -0.03741263225674629, -0.04352649673819542, -0.04412906989455223, -0.04076140746474266, -0.03749678283929825, 0.036785244941711426, 0.04357043281197548, 0.060277026146650314, 0.02475842460989952, 0.039894070476293564, 0.04130888730287552, 0.042093291878700256, 0.0376342348754406, 0.024019891396164894, 0.07718989253044128, 0.050324946641922, 0.053322967141866684, -0.03030896745622158, -0.021600238978862762, -0.00894194096326828, 0.07917503267526627, 0.031168092042207718, -0.03911132737994194, -0.03542357310652733, -0.10202362388372421, -0.09626874327659607, -0.028521977365016937, -0.004002166446298361, -0.026737304404377937, 0.01548499334603548, -0.0055677518248558044, -0.062083300203084946, -0.035556308925151825, 0.02675776183605194, 0.09056147933006287, 0.10586925595998764, -0.009602800942957401, 0.011238853447139263, 0.0319569893181324, 0.013488934375345707, 0.08688566833734512, 0.04973922669887543, 0.04556470364332199, 0.02562599629163742, 0.0517166443169117, 0.013504588045179844, -0.03787228465080261, -0.008026598952710629, 0.04785474017262459, 0.08359109610319138, -0.014830980449914932, 0.009425017051398754, -0.04071250930428505, -0.01180348265916109, 0.005492889788001776, -0.015342271886765957, 0.023722263053059578, -0.057360924780368805, -0.026900259777903557, -0.015277348458766937, 0.022630911320447922, 0.054412223398685455, 0.06087755039334297, 0.03850787132978439, -0.05001771077513695, -0.020107436925172806, 0.04242819547653198, 0.046176571398973465, 0.05441848188638687, 0.08997100591659546, 0.07359638810157776, 0.07473265379667282, 0.02480807900428772, 0.06473240256309509, -0.04761628806591034, -0.05027934908866882, -0.0009893674869090319, 0.035638462752103806, 0.05885239318013191, 0.03614811226725578, -0.06393834203481674, -0.012960231862962246, -0.04694638401269913, -0.038785420358181, -0.017996259033679962, 0.001694014761596918, 0.019142398610711098, 0.003260203404352069, 0.014438915066421032, 0.009374290704727173, -0.0068719591945409775, -0.09736716002225876, 0.007944048382341862, 0.10678213834762573, 0.0567694716155529, 0.10623760521411896, 0.06917160004377365, 0.05761796236038208, 0.08355473726987839, 0.06067945063114166, 0.050614289939403534, 0.0510004460811615, 0.09305306524038315, -0.027750998735427856, 0.00572762917727232, -0.06309669464826584, 0.008744733408093452, 0.04244236648082733, 0.04946821182966232, 0.0031335661187767982, 0.022816555574536324, -0.03204038366675377, -0.08943866193294525, -0.09577803313732147, -0.10373436659574509, -0.048396121710538864, -0.024815071374177933, -0.0717037245631218, -0.10122983902692795, 0.033010080456733704, 0.10332973301410675, 0.12383107841014862, 0.09058577567338943, 0.07290945202112198, 0.08715177327394485, 0.09013982117176056, 0.08867581933736801, 0.08424245566129684, 0.08335799723863602, 0.08991546183824539, 0.04263489320874214, 0.048721492290496826, 0.028517792001366615, -0.004689889494329691, -0.06554940342903137, -0.039251700043678284, 0.0022020889446139336, -0.038104016333818436, -0.0072731031104922295, -0.007450390607118607, -0.05516974255442619, -0.07546190172433853, 0.007734063547104597, 0.00788174755871296, 0.004319196101278067, 0.018589066341519356, 0.05639687180519104, 0.07181206345558167, 0.07686985284090042, 0.07445888966321945, 0.02017582207918167, 0.043244414031505585, 0.0285342950373888, 0.07158879935741425, 0.059649668633937836, 0.029576269909739494, 0.05685286223888397, 0.05027691274881363, 0.08231554925441742, 0.07159999012947083, 0.0900636687874794, 0.05537751689553261, 0.03047042153775692, 0.051849331706762314, -0.01583109237253666, -0.025485418736934662, -0.005728050600737333, 0.007638905663043261, -0.026136426255106926, 0.009226690046489239, 0.06571625173091888, 0.024535013362765312, 0.013670339249074459, 0.012351144105196, 0.048727668821811676, 0.08812525123357773, 0.03530818596482277, 0.05695923790335655, 0.06614196300506592, 0.08517765998840332, 0.026772012934088707, 0.06046184152364731, 0.040316589176654816, 0.030582541599869728, 0.03489554673433304, 0.04859798401594162, 0.06483574956655502, 0.08804973214864731, 0.07663743197917938, 0.03475261107087135, 0.049905624240636826, 0.07515870034694672, 0.0702221542596817, 0.04287460446357727, 0.025097817182540894, 0.04919105023145676, 0.03571774810552597, 0.014220759272575378, 0.05945634841918945, 0.07284758985042572, 0.04668733850121498, 0.03135264664888382, 0.07886656373739243, 0.13990597426891327, 0.09067634493112564, 0.07932718098163605, 0.0519694909453392, 0.028426097705960274, 0.03890020400285721, 0.05773792415857315, 0.03685525059700012, 0.07688889652490616, 0.06195694953203201, 0.037227876484394073, 0.07999260723590851, 0.08755272626876831, 0.09013424813747406, 0.07882910221815109, 0.061643943190574646, 0.02991711162030697, 0.05752438306808472, 0.030079549178481102, 0.03715831786394119, 0.04348515719175339, 0.04308276250958443, 0.06348133087158203, 0.04437759891152382, 0.08307147026062012, 0.02427552454173565, 0.04191466048359871, 0.10757391154766083, 0.1226533055305481, 0.08273108303546906, 0.05887017399072647, 0.07143916189670563, 0.08914954960346222, 0.02197960577905178, 0.05360576510429382], [0.02036130055785179, 0.018696904182434082, -0.0008061432745307684, 0.010606474243104458, 0.0370509959757328, 0.028453245759010315, 0.004125809296965599, 0.04871329292654991, 0.012526766397058964, 0.0455915592610836, 0.06135202571749687, 0.06268952041864395, 0.06720961630344391, 0.03248605877161026, 0.01699647679924965, 0.062229644507169724, 0.021793819963932037, 0.03398272767663002, 0.03927895054221153, 0.045319054275751114, 0.02046239748597145, 0.04079105332493782, 0.0443730391561985, 0.040329378098249435, 0.014576462097465992, 0.024729501456022263, 0.036545563489198685, 0.0003076022840104997, 0.03915539011359215, 0.010808083228766918, 0.051268596202135086, 0.03323870897293091, 0.016228238120675087, 0.051567669957876205, 0.0357697419822216, 0.042125459760427475, 0.03423665463924408, 0.004633571952581406, -0.00473270146176219, 0.01990598812699318, 0.05122637003660202, 0.024188712239265442, 0.05817396566271782, 0.03183574974536896, 0.027982069179415703, 0.0336516834795475, 0.00919528491795063, 0.020563188940286636, 0.00173384346999228, 0.00971385557204485, 0.028291046619415283, 0.01340432558208704, 0.010621837340295315, 0.06306522339582443, 0.06105446442961693, 0.038539450615644455, 0.03519357368350029, 0.03806399926543236, 0.05305352434515953, 0.0624283067882061, 0.0017594466917216778, 0.05005323141813278, 0.035670410841703415, 0.03522161394357681, 0.044237762689590454, -0.006020539905875921, 0.00914752297103405, -0.009928815998136997, -0.022948352620005608, -0.006268098019063473, -0.012278849259018898, -0.024450043216347694, -0.0040023718029260635, -0.006966650485992432, -0.03249514847993851, 0.03725375980138779, 0.007455869112163782, 0.00728958984836936, 0.03101522848010063, 0.011861426755785942, 0.03641023486852646, 0.043558940291404724, 0.05524209514260292, -2.8228751034475863e-06, 0.020337816327810287, 0.05242936685681343, 0.05873110517859459, 0.06146962568163872, -0.0027477198746055365, 0.036650851368904114, 0.03729259967803955, 0.02020346187055111, 0.04420451447367668, 0.06021903082728386, -0.02655993215739727, -0.040204040706157684, -0.06845635175704956, -0.06156786158680916, -0.01984514854848385, -0.02528179995715618, -0.07622962445020676, -0.1185399740934372, -0.12516601383686066, 0.05012807995080948, 0.07303861528635025, -0.016559196636080742, -0.006042494438588619, -0.01438684482127428, 0.03631113842129707, 0.043363939970731735, 0.023584017530083656, 0.045781273394823074, 0.0058853235095739365, 0.03548756241798401, 0.0030025893356651068, -0.0022851836401969194, 0.06818180531263351, 0.037104636430740356, 0.01698032021522522, 0.014074268750846386, 0.038969431072473526, 0.061423495411872864, 0.06709583848714828, -0.03350169211626053, -0.025516964495182037, -0.03450032323598862, -0.10861010104417801, -0.19604849815368652, -0.1819506138563156, -0.2100212424993515, -0.10403852164745331, 0.07463706284761429, 0.035694461315870285, 0.005594426766037941, 0.06237692013382912, 0.06419689208269119, -0.043795887380838394, -0.0007245889282785356, 0.03150978684425354, -0.0040479134768247604, 0.049935828894376755, 0.05607755109667778, 0.01202260423451662, 0.005394539795815945, 0.05144703388214111, 0.07845042645931244, 0.04577910527586937, -0.00954671110957861, -0.027234630659222603, 0.04819420725107193, 0.10942910611629486, 0.11306940019130707, 0.19626052677631378, 0.05815261974930763, -0.1343376785516739, -0.37092915177345276, -0.33303719758987427, -0.13097742199897766, 0.07603209465742111, 0.16445602476596832, 0.09619468450546265, 0.0002978169941343367, 0.11807329952716827, 0.03732375055551529, 0.03327389061450958, -0.0013494323939085007, 0.011253399774432182, 0.0528789758682251, 0.028751440346240997, 0.005977628752589226, 0.012368342839181423, 0.0075911059975624084, 0.05605493485927582, 0.0320650078356266, 0.005251994356513023, -0.00595635874196887, -0.03093625232577324, 0.04431711509823799, 0.0571424625813961, 0.11016848683357239, 0.15594546496868134, 0.02975877933204174, -0.18861299753189087, -0.5067565441131592, -0.37183448672294617, 0.013651032000780106, 0.14442682266235352, 0.09939093142747879, 0.12468971312046051, 0.06434968113899231, 0.039337314665317535, 0.031031860038638115, 0.016390882432460785, -0.006863913033157587, 0.010647722519934177, 0.051747877150774, 0.0012609686236828566, 0.04028116166591644, 0.045375388115644455, 0.030882669612765312, -0.017734983935952187, 0.012260043993592262, 0.050556086003780365, -0.019341660663485527, -0.04835309088230133, -0.02990780584514141, 0.03862479329109192, 0.11082252115011215, 0.160824254155159, -0.009690604172647, -0.2766675055027008, -0.5198584198951721, -0.2344653606414795, 0.08689992874860764, 0.19083602726459503, 0.1591765135526657, 0.002147659659385681, -0.0267645213752985, -0.07081683725118637, -0.030784258618950844, 0.012318536639213562, 0.08246686309576035, 0.0532853864133358, 0.02916124276816845, -0.00013576439232565463, 0.06236525997519493, 0.023615818470716476, 0.04454648867249489, 0.00782974623143673, -0.02111726999282837, 0.03129740059375763, -0.03628436475992203, -0.14836400747299194, -0.02983410842716694, 0.0028766952455043793, 0.11239466071128845, 0.16542579233646393, -0.06594650447368622, -0.3143872916698456, -0.33727556467056274, -0.0712619423866272, 0.10638043284416199, 0.16506372392177582, 0.11506067216396332, -0.05111834406852722, -0.11359184980392456, -0.1294565498828888, -0.0390562005341053, 0.041175540536642075, 0.007332832086831331, 0.008558759465813637, -0.0029229409992694855, 0.05178681015968323, 0.02656606398522854, 0.05840824544429779, 0.06616545468568802, 0.03634858503937721, 0.018167736008763313, -0.06356478482484818, -0.13674063980579376, -0.10880815982818604, -0.0665259063243866, -0.028895303606987, 0.10819749534130096, 0.15761497616767883, -0.07308220118284225, -0.2874049246311188, -0.15008367598056793, 0.06342946738004684, 0.17128939926624298, 0.17133624851703644, 0.00270023918710649, -0.10932120680809021, -0.10642306506633759, 0.011009539477527142, -0.006357083562761545, -0.004462315235286951, 0.013450936414301395, 0.02574240043759346, 0.004278288222849369, 0.059730563312768936, 0.05786221846938133, 0.0459090992808342, 0.013811715878546238, 0.06557469069957733, 0.04154522344470024, -0.039168793708086014, -0.11877085268497467, -0.10170324146747589, -0.043696049600839615, 0.029210662469267845, 0.14909395575523376, 0.10622401535511017, -0.1809995025396347, -0.257639080286026, -0.04536557197570801, 0.0769069492816925, 0.142626091837883, 0.06909764558076859, -0.010634430684149265, -0.12153825163841248, -0.003938090987503529, -0.048259373754262924, -0.10218837112188339, -0.05575469136238098, -0.008401129394769669, -0.004217343870550394, 0.036754101514816284, 0.041914697736501694, 0.062240902334451675, 0.05227610096335411, 0.020333154127001762, 0.007418170105665922, 0.08345866203308105, -0.04064024239778519, -0.0847749263048172, -0.14226114749908447, -0.07668859511613846, -0.0035911896266043186, 0.08954528719186783, 0.05881156772375107, -0.10893506556749344, 0.0011258604936301708, -0.03485861420631409, 0.04966557025909424, 0.08664651960134506, 0.055293358862400055, -0.03855904936790466, -0.12611447274684906, 0.013448897749185562, -0.08606196939945221, -0.017766952514648438, -0.05989501252770424, -0.015911228954792023, 0.026477398350834846, 0.05677014961838722, 0.006633418146520853, 0.039284154772758484, 0.025606589391827583, 0.014343280345201492, -0.015614666044712067, 0.03328124061226845, -0.0013769950019195676, -0.08303828537464142, -0.1301059126853943, -0.09211251139640808, 0.040527716279029846, 0.0792081207036972, 0.07179256528615952, 0.05784590169787407, 0.011445802636444569, 0.0020660627633333206, 0.03638448938727379, 0.07843580842018127, 0.06396406888961792, -0.03725597262382507, -0.019020143896341324, 0.13799436390399933, 0.1363871991634369, 0.10658988356590271, 0.11698801070451736, 0.08059512823820114, 0.07103723287582397, 0.03274493291974068, 0.047590192407369614, 0.07912422716617584, 0.06325466930866241, 0.03475942462682724, 0.03845852240920067, -0.011659609153866768, 0.017650730907917023, -0.004887382499873638, -0.003509148955345154, 0.009078443981707096, -0.019250767305493355, 0.013797854073345661, 0.009693657979369164, 0.06560933589935303, -0.0008780804928392172, 0.009084535762667656, 0.06430405378341675, 0.06310225278139114, 0.11386795341968536, 0.01714707352221012, 0.10544323921203613, 0.10750961303710938, 0.08193295449018478, 0.09488879144191742, 0.07745090872049332, 0.08345084637403488, 0.024136947467923164, 0.012636813335120678, 0.04100416228175163, 0.0047018383629620075, 0.05467330664396286, 0.06480253487825394, 0.0026048545259982347, 0.06617267429828644, 0.02823386713862419, -0.01664223149418831, 0.03798156604170799, -0.02466723881661892, -0.0067714606411755085, 0.01634126901626587, -0.026869049295783043, 0.008695871569216251, 0.0787913054227829, 0.07030236721038818, 0.08006802201271057, 0.10129012912511826, 0.01997624710202217, 0.06540025025606155, 0.045958589762449265, 0.05662740394473076, 0.06191791966557503, 0.008824659511446953, 0.01726330816745758, 0.004869888536632061, 0.00195763586089015, 0.06433982402086258, 0.0384892113506794, 0.028480811044573784, 0.06469444185495377, 0.027449170127511024, 0.03705153241753578, -0.00884205661714077, -0.012066351249814034, -0.06042638048529625, 0.022090045735239983, -0.015646178275346756, 0.08855342864990234, 0.062358371913433075, 0.002383446553722024, 0.089755579829216, 0.11732392013072968, 0.10952457785606384, 0.060628924518823624, 0.009435338899493217, 0.04142289608716965, 0.045730482786893845, -0.0018979752203449607, -0.0121228639036417, 0.019355056807398796, 0.01926746405661106, 0.007208454422652721, -0.0066375439055264, 0.03161449357867241, -0.0031872843392193317, 0.057385530322790146, 0.014947648160159588, 0.0509144589304924, 0.03866295516490936, -0.037509094923734665, 0.005251008551567793, 0.013554239645600319, 0.02689225971698761, 0.03385414928197861, -0.01929095759987831, -0.013323775492608547, -0.0042966739274561405, 0.03914790228009224, 0.0900246724486351, 0.07423184812068939, 0.05725567787885666, 0.019562935456633568, -0.03397843986749649, 0.012869320809841156, -0.04671308770775795, -0.08916912227869034, -0.08846812695264816, -0.017737004905939102, -0.013545914553105831, 0.03158479928970337, 0.007310737855732441, 0.052183154970407486, 0.003934408072382212, 0.02432059496641159, -0.0029517915099859238, 0.06073101982474327, -0.027119264006614685, 0.0066000912338495255, -0.053728263825178146, -0.06164783239364624, 0.036981090903282166, -0.03573976084589958, 0.039246611297130585, 0.00347892171703279, -0.015402709133923054, -0.0557183176279068, -0.037502896040678024, 0.00734945572912693, 0.01019227597862482, -0.015610072761774063, -0.06510601937770844, 0.0073744505643844604, -0.047230374068021774, -0.04455104470252991, -0.006710108369588852, -0.02616596408188343, 0.030709268525242805, 0.05926118418574333, 0.03320750221610069, 0.0022717099636793137, 0.019133031368255615, -0.0028274813666939735, -0.002889937022700906, 0.003345770761370659, 0.018329359591007233, -0.007470727898180485, -0.06770521402359009, -0.055525340139865875, -0.008791371248662472, 0.043156594038009644, -0.03514426201581955, 0.03676648065447807, 0.026282241567969322, -0.06688465178012848, -0.04861319437623024, -0.01958683878183365, 0.02728588506579399, -0.0032277596183121204, -0.05598001554608345, -0.027559146285057068, -0.03977026790380478, -0.0762200728058815, -0.008231845684349537, -0.012196608819067478, 0.010843954980373383, 0.025586789473891258, 0.05650848150253296, 0.04818694666028023, 0.024789687246084213, 0.03435658663511276, 0.004276969004422426, 0.0436970554292202, 0.011055602692067623, 0.03888547047972679, -0.08819401264190674, -0.08256697654724121, 0.1146739050745964, 0.0502118319272995, 0.014346216805279255, -0.016043363139033318, -0.007671780418604612, -0.0860004648566246, -0.02927148900926113, -0.03537587821483612, 0.027333559468388557, 0.01664845459163189, -0.09310165792703629, -0.04767969623208046, -0.0259381290525198, -0.029971396550536156, 0.026165511459112167, -0.022664804011583328, -0.013225153088569641, 0.043906401842832565, 0.01476966217160225, 0.020130405202507973, 0.018105972558259964, 0.017948321998119354, 0.06706992536783218, 0.00924292765557766, 0.002218455309048295, -0.030340924859046936, -0.06447643041610718, 0.04907117038965225, 0.08883032202720642, 0.06991977244615555, -0.06667197495698929, -0.05318749323487282, -0.08038981258869171, -0.05096202343702316, -0.03640881925821304, -0.020105015486478806, -0.044217199087142944, 0.04253130406141281, -0.06990905851125717, 0.005804475862532854, 0.01839035376906395, -0.014175324700772762, 0.0018655858002603054, 0.016534702852368355, -0.006449552718549967, 0.03910946100950241, -0.003797543700784445, 0.02445959486067295, 0.02991168014705181, -0.003208122681826353, 0.007433236576616764, 0.017398498952388763, 0.0029680810403078794, -0.0019293527584522963, 0.05674760043621063, 0.07062055170536041, 0.1112365871667862, 0.056567300111055374, 0.009896928444504738, -0.059017181396484375, -0.07937277853488922, -0.04862498119473457, -0.005978393368422985, -0.03889741748571396, 0.00948544405400753, 0.012076054699718952, -0.015752358362078667, 0.06301238387823105, 0.008592518977820873, 0.07190363109111786, -0.036201078444719315, -0.028975076973438263, -0.02271125651896, -0.001694828039035201, 0.010801889933645725, 0.03863764554262161, 0.022519350051879883, 0.009799747727811337, 0.05773065611720085, 0.010979236103594303, 0.0006347214221023023, 0.004694000817835331, 0.08299890905618668, 0.11009705066680908, 0.10772950947284698, 0.08096939325332642, 0.07009505480527878, 0.008130231872200966, -0.05810540169477463, -0.10587306320667267, 0.0014479776145890355, -0.060239311307668686, -0.016274189576506615, 0.017826009541749954, -0.021535459905862808, 0.07576694339513779, 0.06145684793591499, 0.07530754804611206, -0.020768694579601288, -0.0025305175222456455, -0.012458221055567265, -0.0053865439258515835, 0.05324847623705864, 0.023077121004462242, 0.02453242987394333, 0.0634053647518158, 0.019995730370283127, 0.06535916030406952, -0.014300617389380932, -0.03230531886219978, -0.02186114341020584, 0.022921670228242874, 0.04481662064790726, 0.10874573886394501, 0.04288535565137863, 0.057540006935596466, -0.002508097793906927, 0.013646362349390984, 0.03542143851518631, -0.02071443945169449, -0.05643574148416519, -0.017367616295814514, 0.026180360466241837, 0.06199585273861885, 0.09683302044868469, 0.0016925609670579433, -0.016705533489584923, -0.03974660485982895, 0.010774241760373116, -0.04517773538827896, 0.055141691118478775, -0.0015106882201507688, 0.05503448471426964, 0.020521458238363266, 0.0030718089547008276, 0.05301820859313011, -0.013223092071712017, -0.05057326704263687, -0.08487311005592346, -0.03870142996311188, -0.01603527180850506, -0.08490605652332306, -0.013561895117163658, 0.07960488647222519, 0.054931119084358215, 0.029239388182759285, 0.11616575717926025, 0.056214481592178345, -0.16792432963848114, 0.022518673911690712, 0.02464085817337036, 0.039434678852558136, 0.09760673344135284, -0.024127736687660217, -0.018555786460638046, 0.06587934494018555, 0.03979858383536339, -0.016564013436436653, 0.06499423086643219, 0.003046483499929309, 0.06749041378498077, 0.018030274659395218, 0.06534156948328018, 0.05405820533633232, 0.024174919351935387, -0.01931334286928177, -0.028412802144885063, -0.044514041393995285, -0.08696450293064117, -0.0782044380903244, -0.012251172214746475, 0.088860884308815, 0.05590866506099701, -0.01420653983950615, 0.0133631881326437, -0.017404096201062202, -0.20994000136852264, -0.1696300208568573, -0.13099315762519836, -0.0305651668459177, -0.006994736380875111, -0.06160431355237961, -0.010781224817037582, -0.005100402515381575, 0.06037920340895653, 0.049169477075338364, 0.017796706408262253, 0.02629600092768669, 0.06132352724671364, 0.023197069764137268, 0.014228339307010174, 0.04205610230565071, 0.0027690816204994917, 0.06398147344589233, -0.012724561616778374, -0.048595182597637177, -0.0290748942643404, -7.74544332671212e-06, -0.053647443652153015, -0.04373170807957649, -0.06116900593042374, -0.07559552043676376, -0.1084422916173935, -0.07913035154342651, -0.12422043830156326, -0.058139801025390625, -0.039945848286151886, -0.058318693190813065, -0.03619350865483284, -0.030601100996136665, -0.010067150928080082, 0.03141537308692932, 0.008388987742364407, 0.004671317525207996, 0.011106354184448719, 0.05931248143315315, 0.004872958175837994, 0.0007140306988731027, 0.04008878394961357, 0.011130302213132381, 0.00738683994859457, 0.03354628384113312, 0.06260142475366592, 0.06088356673717499, -0.01803213357925415, -0.02026073820888996, 0.025063270702958107, -0.04991497844457626, -0.02517046593129635, 0.04085202515125275, 0.04123362526297569, 0.05847572535276413, -0.004163677338510752, 0.014709149487316608, 0.04943114519119263, 0.0296188835054636, 0.03365827724337578, 0.023586586117744446, 0.03519389033317566, -0.0045908414758741856, 0.053457606583833694, 0.03237594664096832, 0.014353825710713863, -0.0024300457444041967, 0.010642490349709988], [0.07706283777952194, 0.048435285687446594, 0.04826352000236511, 0.017102017998695374, 0.05316724628210068, 0.06492609530687332, 0.016501806676387787, 0.035955581814050674, 0.07045843452215195, 0.03312971815466881, 0.02851780503988266, 0.07592996209859848, 0.009884864091873169, 0.0709831491112709, 0.008529537357389927, 0.07006502896547318, 0.02899288758635521, 0.05433046072721481, 0.022295325994491577, 0.016993803903460503, 0.053116150200366974, 0.03988237679004669, 0.01596307009458542, 0.039703644812107086, 0.05987050384283066, 0.05758179724216461, 0.01768544688820839, 0.07362749427556992, 0.01751415617763996, 0.052718691527843475, 0.028768770396709442, 0.033481668680906296, 0.04171264171600342, 0.03266304358839989, 0.030822809785604477, 0.011556586250662804, 0.03968314826488495, 0.042465340346097946, 0.035374414175748825, 0.05379040166735649, 0.023451998829841614, 0.010053823702037334, 0.09608463943004608, 0.09644865989685059, 0.009652800858020782, 0.01177107635885477, 0.01810332015156746, 0.07244791090488434, 0.028455611318349838, 0.07277807593345642, 0.04226565361022949, 0.023762036114931107, 0.07252951711416245, 0.04252718389034271, 0.05545033514499664, 0.060897573828697205, 0.04694603383541107, 0.03641718253493309, 0.04326864331960678, 0.010789942927658558, 0.05728182941675186, 0.035112589597702026, 0.045666955411434174, 0.07185310125350952, 0.07658426463603973, 0.055994320660829544, 0.04807334020733833, 0.07641594111919403, 0.04457885026931763, 3.0689407140016556e-06, 0.03578728437423706, 0.03587339073419571, 0.019520966336131096, -0.016654839739203453, 0.035059522837400436, 0.006160769145935774, 0.0007163517293520272, 0.04021398350596428, 0.05879233032464981, 0.046170398592948914, 0.03158542513847351, 0.034412138164043427, 0.02200324460864067, 0.01096208393573761, 0.027413148432970047, 0.027041852474212646, 0.07822541147470474, 0.0453769788146019, 0.016932597383856773, 0.07113713026046753, 0.01728036068379879, 0.06622364372015, 0.033437810838222504, 0.025239139795303345, 0.06608062982559204, 0.043314654380083084, 0.0220315083861351, -0.06655382364988327, -0.13248445093631744, -0.0820084735751152, -0.059713948518037796, -0.005898807197809219, -0.06001131236553192, 0.03396758437156677, 0.06275971233844757, -0.002642764011397958, 0.07435695827007294, 0.03341309353709221, 0.06032082438468933, 0.01517478283494711, 0.06993826478719711, 0.06481238454580307, 0.07350567728281021, 0.0567646324634552, 0.08435972034931183, 0.0462527759373188, 0.05223198980093002, 0.03083675168454647, 0.056905679404735565, 0.01733263023197651, 0.0583391934633255, 0.0020943330600857735, -0.031243501231074333, -0.07065679132938385, -0.07904910296201706, -0.16899479925632477, -0.07539720833301544, 0.015382349491119385, 0.04322575032711029, 0.04231441393494606, -0.03882216289639473, 0.031229903921484947, 0.09509750455617905, 0.05632929876446724, 0.042795684188604355, 0.05876892805099487, 0.006724504288285971, -0.0038820039480924606, 0.0052156527526676655, 0.03464290127158165, 0.026064611971378326, 0.03150329366326332, 0.05152931436896324, 0.010431583039462566, 0.023131681606173515, 0.06787480413913727, 0.04001487046480179, 0.07667374610900879, 0.050060681998729706, 0.0795023962855339, 0.0344109870493412, -0.07205039262771606, -0.08748459070920944, -0.10933744162321091, 0.004004731308668852, -0.06982795149087906, -0.024965958669781685, -0.11515407264232635, -0.10817355662584305, -0.11579787731170654, -0.039471883326768875, 0.0017560088308528066, 0.00018808938330039382, -0.04024258628487587, -0.01894397847354412, 0.01177680678665638, 0.009921896271407604, 0.04674068093299866, 0.05755458027124405, 0.018435772508382797, 0.06934153288602829, 0.02818034030497074, 0.029750138521194458, 0.07660533487796783, 0.0098705580458045, -0.005148641765117645, 0.015563879162073135, 0.05223999172449112, 0.038502633571624756, 0.11374715715646744, -0.037208929657936096, -0.08535889536142349, -0.05798494815826416, -0.07361584156751633, -0.05848507210612297, -0.07822808623313904, -0.02512403577566147, 0.004150524735450745, -0.04654986411333084, -0.015565896406769753, 0.025857944041490555, -0.03785490244626999, -0.06440732628107071, 0.04676571115851402, 0.062096890062093735, 0.0665913075208664, 0.043354813009500504, 0.014433784410357475, 0.08203384280204773, 0.04620569944381714, 0.03265310451388359, 0.0015086843632161617, -0.0037536597810685635, 0.02028539404273033, -0.028450865298509598, 0.031709980219602585, 0.011817717924714088, -0.025856181979179382, -0.028700094670057297, -0.025664180517196655, 0.044405367225408554, -0.005234081298112869, 0.04270050302147865, 0.073677659034729, -0.05654509365558624, 0.03573978692293167, 0.04382922500371933, 0.006018916144967079, -0.033966489136219025, 0.01618923433125019, -0.07345429062843323, -0.05236642807722092, 0.02694227173924446, 0.01867113821208477, 0.007970175705850124, 0.03825899213552475, 0.07789790630340576, 0.0735146775841713, 0.062418192625045776, 0.023422865197062492, -0.034019529819488525, -0.015677761286497116, -0.005911391694098711, 0.009293753653764725, -0.05053602159023285, 0.02931956946849823, -0.028652135282754898, -0.10714315623044968, 0.017158614471554756, 0.05630456656217575, 0.06427226960659027, 0.1319933384656906, 0.052074357867240906, 0.07411929965019226, -0.006981040351092815, -0.040656786412000656, -0.019794994965195656, 0.014722910709679127, -0.03486163169145584, -0.019665487110614777, 0.007371059153228998, 0.06695568561553955, 0.03338940814137459, 0.07338615506887436, 0.07726370543241501, 0.05205700546503067, 0.042672090232372284, -0.011017250828444958, 0.01937742903828621, -0.0003496359277050942, 0.0895729809999466, 0.07694154232740402, -0.02459089457988739, -0.057016123086214066, -0.17741163074970245, -0.11695195734500885, -0.00943518616259098, 0.11648216843605042, 0.22143243253231049, 0.1386345624923706, 0.022102417424321175, 0.012630416080355644, -0.06026541069149971, -0.052512478083372116, 0.08067237585783005, -0.02086213044822216, 0.03508935123682022, 0.019672704860568047, -0.0366651676595211, 0.03647399693727493, 0.05984124541282654, 0.018387001007795334, 0.021096237003803253, 0.04313315451145172, 0.008730440400540829, -0.026213474571704865, -0.038433171808719635, -0.055375054478645325, 0.05321227386593819, -0.014979792758822441, -0.03722048178315163, -0.08521506190299988, -0.15924008190631866, -0.1692216396331787, 0.05257999151945114, 0.2266349047422409, 0.19687752425670624, 0.2007206231355667, 0.047116778790950775, -0.02509000338613987, -0.06474486738443375, 0.0015364253195002675, 0.017557399347424507, 0.035906970500946045, -0.017583688721060753, 0.03574724867939949, -0.02982739917933941, 0.01888810284435749, 0.014071065001189709, 0.026559943333268166, 0.02941717579960823, 0.010773677378892899, 0.04110684618353844, -0.035880569368600845, -0.05417024344205856, -0.0498051792383194, 0.06919313967227936, -0.05710306391119957, -0.06604114919900894, -0.05844464898109436, -0.12627504765987396, -0.06727822124958038, 0.05184110626578331, 0.13856802880764008, 0.1422657072544098, 0.049712199717760086, -0.03940363973379135, -0.04641019180417061, -0.04948602244257927, 0.12207839637994766, 0.09549199044704437, 0.06736388057470322, 0.02843870408833027, 0.016876310110092163, 0.012373481877148151, 0.057388775050640106, 0.016144122928380966, 0.0443694144487381, 0.06864242255687714, 0.024028386920690536, -0.008275005035102367, -0.03082679770886898, -0.05591395124793053, -0.07449618726968765, -0.0076032173819839954, -0.009442625567317009, -0.07921740412712097, -0.16663560271263123, -0.051770683377981186, -0.038934942334890366, 0.06835751980543137, 0.09694811701774597, 0.0742945447564125, 0.024478064849972725, 0.03776979073882103, -0.04423213750123978, -0.01434302143752575, 0.0831698402762413, 0.02883874997496605, 0.03656979277729988, 0.03696216270327568, 0.03360988572239876, 0.04066595062613487, 0.03280553221702576, 0.03140074759721756, 0.07530749589204788, 0.014402681961655617, 0.032090555876493454, 0.03686634451150894, -0.0059135910123586655, -0.017100036144256592, -0.005676186177879572, -0.07394373416900635, -0.05938229337334633, -0.07929366827011108, -0.1876354217529297, -0.17039526998996735, -0.025158600881695747, 0.08971819281578064, 0.022812064737081528, 0.10602614283561707, 0.05661711096763611, -0.002421833574771881, 0.029443277046084404, 0.04408513382077217, 0.04856342822313309, -0.04410597309470177, -0.01595226489007473, -0.044532764703035355, 0.010027405805885792, 0.040317926555871964, 0.011291394010186195, 0.048475153744220734, 0.043344441801309586, 0.06082203611731529, 0.03658013790845871, 0.03830026835203171, -0.00873807817697525, 0.018427668139338493, 0.03400826454162598, -0.10813399404287338, -0.0713486596941948, -0.07851578295230865, -0.04026026278734207, -0.06297287344932556, 0.002736160531640053, 0.07370173931121826, 0.0459320992231369, 0.06956429779529572, -0.04993361979722977, -0.013523105531930923, -0.009651326574385166, -0.004276327323168516, 0.08150587975978851, -0.09030090272426605, -0.021987540647387505, 0.024223612621426582, 0.017413996160030365, 0.030782431364059448, 0.018782008439302444, 0.012324145063757896, 0.06642463058233261, 0.073821522295475, 0.043466754257678986, 0.048140838742256165, 0.0006324536516331136, -0.05230564624071121, -0.016117790713906288, -0.015031103976070881, -0.011113117448985577, -0.007727861870080233, 0.004827223718166351, 0.046919528394937515, 0.02340795285999775, 0.048475757241249084, 0.05024066939949989, 0.01042751781642437, -0.020091531798243523, -0.029032256454229355, -0.09510939568281174, -0.08510785549879074, 0.022000528872013092, -0.030751392245292664, 0.028925541788339615, 0.023264702409505844, -0.05882357060909271, 0.04901205375790596, 0.010013139806687832, 0.0366000160574913, 0.06338438391685486, 0.02342788130044937, 0.02002410963177681, -0.02598104253411293, 0.017151476815342903, 0.0027393524069339037, -0.007013197056949139, 0.02717001549899578, 0.04187560826539993, -0.011071579530835152, -0.038513630628585815, 0.03427000716328621, 0.11252477020025253, 0.0609622523188591, 0.08718346804380417, 0.03982768952846527, 0.019971702247858047, -0.025412647053599358, -0.06838837265968323, -0.07633332908153534, -0.08622712641954422, -0.12280315905809402, -0.07664138823747635, -0.10412666201591492, -0.012436412274837494, 0.05615078657865524, 0.042450666427612305, 0.021515514701604843, 0.03167758882045746, 0.054395388811826706, -0.013073849491775036, -0.024957194924354553, -0.03137629106640816, -0.019277069717645645, -0.027161505073308945, -0.0022389194928109646, 0.004159198608249426, -0.040718529373407364, 0.013291902840137482, 0.09781551361083984, 0.10827074199914932, 0.027164559811353683, -0.07021357119083405, -0.0675780400633812, -0.0947536751627922, -0.08256705105304718, 0.008777646347880363, 0.054048676043748856, 0.05627495050430298, 0.08805334568023682, 0.0826062262058258, 0.10783588886260986, 0.08587808907032013, 0.12185929715633392, 0.020557638257741928, 0.016621701419353485, 0.06738518923521042, 0.04161849617958069, -0.018319619819521904, 0.031828101724386215, -0.034724749624729156, -0.1174532026052475, -0.049561772495508194, -0.07518503069877625, -0.0901794582605362, -0.01611412689089775, 0.09203430265188217, 0.12699729204177856, 0.11698600649833679, -0.0667499527335167, -0.14401455223560333, -0.1295919418334961, -0.058247726410627365, -0.02749435417354107, -0.03065338172018528, -0.042100582271814346, 0.033261388540267944, 0.017401691526174545, 0.046820200979709625, 0.02512321248650551, 0.03451894596219063, 0.06955263018608093, 0.06685003638267517, 0.020353635773062706, 0.04621722549200058, 0.045366283506155014, 0.010928836651146412, -0.004351387266069651, -0.048980701714754105, -0.07054988294839859, -0.037290558218955994, -0.11984618008136749, -0.06515543907880783, 0.0003675368498079479, 0.08446865528821945, 0.14544422924518585, 0.04790089651942253, -0.13120068609714508, -0.17614972591400146, -0.11371252685785294, -0.15880738198757172, -0.11239612847566605, -0.06159919500350952, -0.03700236231088638, -0.07736336439847946, -0.08321524411439896, 0.009379344061017036, -0.008994048461318016, 0.003867599181830883, 0.059415411204099655, 0.013346712104976177, 0.03245016932487488, 0.061191778630018234, 0.014160672202706337, -0.0009239613427780569, -0.008204572834074497, -0.11734768748283386, -0.007232244126498699, -0.036939144134521484, -0.06890767812728882, -0.044274136424064636, 0.06628066301345825, 0.06723708659410477, 0.11925376951694489, -0.05126318335533142, -0.13778144121170044, -0.2736470401287079, -0.20922836661338806, -0.25048747658729553, -0.20386384427547455, -0.08619875460863113, -0.061218779534101486, -0.031187977641820908, -0.056834109127521515, 0.0091380150988698, 0.023324010893702507, 0.01906459778547287, 0.014729541726410389, 0.01053796336054802, 0.05109500139951706, 0.011614763177931309, 0.006133736111223698, -0.0006468454957939684, -0.00199147523380816, -0.045223962515592575, -0.013802419416606426, -0.07861305773258209, -0.039855193346738815, -0.014364337548613548, 0.009957723319530487, -0.01948564685881138, -0.025711962953209877, -0.0141628198325634, -0.10098689049482346, -0.23181922733783722, -0.269542932510376, -0.1650448441505432, -0.16375300288200378, -0.10360601544380188, 0.0034940263722091913, -0.011323611252009869, -0.02826624922454357, 0.015256136655807495, 0.02586430311203003, 0.02819172851741314, 0.03121231123805046, 0.015090420842170715, 0.06322991847991943, 0.05158760026097298, 0.0363495796918869, 0.0007283884333446622, 0.027613051235675812, 0.018153799697756767, 0.07374448329210281, -0.011433301493525505, 0.03282514959573746, -0.011887873522937298, -0.005793202668428421, -0.023074664175510406, 0.006813325919210911, -0.008880726993083954, -0.01795218512415886, -0.22107845544815063, -0.11845609545707703, -0.09737991541624069, -0.15525619685649872, -0.030332442373037338, -0.016182444989681244, -0.03205307945609093, -0.008205662481486797, -0.005080622620880604, 0.011722572147846222, 0.023022588342428207, 0.05571845918893814, 0.06406892836093903, 0.041324466466903687, 0.07399430125951767, 0.032457415014505386, 0.008630328811705112, 0.09938459098339081, 0.05851611867547035, -0.011055810377001762, 0.05902368575334549, -0.050071556121110916, 0.01920272782444954, -0.024792073294520378, 0.02939949929714203, 0.06797604262828827, 0.11415665596723557, 0.017369762063026428, -0.15853045880794525, -0.17609639465808868, -0.20699715614318848, -0.14575843513011932, -0.11207286268472672, -0.09820076078176498, -0.010794119909405708, -0.04022888094186783, -0.023211777210235596, 0.031170794740319252, 0.02842814102768898, 0.020351937040686607, 0.04577142745256424, 0.056191764771938324, 0.014423742890357971, 0.06878684461116791, 0.05283448472619057, 0.057483892887830734, 0.10793226212263107, 0.04262126237154007, 0.009087962098419666, -0.06378409266471863, -0.041415151208639145, -0.08369163423776627, 0.05229915305972099, 0.007613996509462595, 0.08429872244596481, 0.05557224527001381, -0.06470677256584167, -0.18564803898334503, -0.21001598238945007, -0.17626002430915833, -0.12300405651330948, -0.08548635989427567, -0.05741901695728302, 0.03986455872654915, 0.029313290491700172, 0.03204982355237007, 0.07011018693447113, 0.03191900625824928, 0.07335218042135239, 0.0720800831913948, 0.05610969662666321, 0.044013120234012604, 0.05720914155244827, 0.09960926324129105, 0.07855191081762314, 0.02844216674566269, 0.08525560796260834, 0.10991884768009186, 0.05491401627659798, 0.0009257054189220071, 0.08583997935056686, 0.005993669852614403, 0.02423781529068947, 0.06463303416967392, -0.009843915700912476, -0.10234823077917099, -0.07660473138093948, -0.03100091964006424, -0.0405985452234745, 0.017984144389629364, -0.002384409075602889, 0.0377240851521492, 0.0122023094445467, 0.054607994854450226, 0.03084142878651619, 0.04691089689731598, 0.06458801031112671, 0.07378808408975601, 0.025529902428388596, 0.07693453878164291, 0.060266558080911636, 0.03733306750655174, 0.034452371299266815, 0.052332986146211624, 0.08643702417612076, 0.05023595690727234, 0.038874298334121704, 0.029556216672062874, -0.028039688244462013, -0.04771790653467178, -0.04210224002599716, 0.025840673595666885, 0.05556302145123482, 0.05111755058169365, 0.05142280086874962, 0.034488048404455185, 0.029830800369381905, 0.01707335188984871, 0.05694212019443512, 0.06827444583177567, 0.07028292864561081, 0.012382490560412407, 0.049799710512161255, 0.027356650680303574, 0.06363047659397125, 0.0777396634221077, 0.010355344042181969, 0.018026962876319885, 0.02105635777115822, 0.05169074237346649, 0.06723087280988693, 0.04317422956228256, 0.014905676245689392, 0.060443487018346786, 0.04032710939645767, 0.05373793840408325, 0.05905858427286148, 0.009264676831662655, 0.033261656761169434, 0.07756809145212173, 0.05521804839372635, 0.04938303306698799, 0.07235851883888245, 0.016836633905768394, 0.04809272661805153, 0.07700818032026291, 0.027390548959374428, 0.06714870780706406, 0.0577835813164711, 0.03342508152127266, 0.06953733414411545, 0.02210959792137146, 0.047012314200401306], [0.042399805039167404, 0.011497966013848782, -0.009781326167285442, 0.030133510008454323, 0.038066793233156204, 0.03661239892244339, -0.0045450832694768906, -0.016380544751882553, 0.03819137439131737, 0.04090896621346474, -0.019115328788757324, -0.01871907338500023, -0.005291713867336512, 0.02729583904147148, 0.037001099437475204, 0.02612973377108574, -0.00944583024829626, 0.02889472246170044, 0.03631677106022835, -0.007324383594095707, 0.027133561670780182, 0.03223257139325142, 0.028549674898386, -0.006145848892629147, 0.005498526617884636, -0.024248361587524414, 0.04359908774495125, 0.008088185451924801, 0.042441170662641525, -0.005349874496459961, 0.03163328766822815, -0.023982662707567215, -0.010283132083714008, -0.0006007151678204536, 0.014059911482036114, 0.036285821348428726, 0.04360168054699898, 0.026215579360723495, 0.006502031348645687, 0.007698939647525549, 0.022950749844312668, 0.009551296941936016, 0.011299336329102516, 0.005367822013795376, 0.013122559525072575, 0.00326264975592494, 0.019970186054706573, 0.018647829070687294, -0.014513137750327587, 0.030344488099217415, -0.01897459104657173, 0.026030555367469788, 0.03630690649151802, -0.002340084407478571, -0.02173948660492897, -0.014012585394084454, -0.020500391721725464, 0.03389764204621315, 0.04333248361945152, 0.0050626713782548904, 0.03253814950585365, -0.01350365113466978, 0.04373452067375183, 0.02645092085003853, 0.028491707518696785, -0.002453471068292856, 0.00013531809963751584, 0.004369809292256832, 0.012836823239922523, 0.03947993740439415, -0.017557010054588318, 0.023682191967964172, 0.007856578566133976, -0.020872656255960464, 0.018007060512900352, 0.004548989702016115, 0.015447281301021576, 0.02658330835402012, -0.011684229597449303, 0.02852058969438076, 0.01947741210460663, -0.015344385989010334, 0.03754638507962227, 0.0035253814421594143, 0.039740193635225296, 0.018721899017691612, -0.008988297544419765, -0.0031122551299631596, 0.006059801205992699, -0.023375071585178375, 0.008068276569247246, 0.010091976262629032, -0.012364938855171204, 0.031880661845207214, 0.0476437509059906, 0.02203170210123062, 0.09210243076086044, 0.11842293292284012, 0.12256766110658646, 0.1442437767982483, 0.11402318626642227, 0.11354691535234451, 0.10672474652528763, 0.039709288626909256, 0.01020788587629795, -0.0017180155264213681, 0.015653545036911964, 0.016802527010440826, 0.01966179348528385, -0.012457768432796001, -0.026868311688303947, -0.025334432721138, -0.0067988792434334755, 0.00467752106487751, 0.008439050056040287, 0.03445606678724289, 0.050112102180719376, 0.045892130583524704, 0.008176051080226898, -0.030706794932484627, -0.04438432306051254, 0.0031879032030701637, 0.04506653919816017, 0.14814114570617676, 0.03878038749098778, 0.058734528720378876, -0.014359595254063606, 0.035379599779844284, 0.01834629289805889, -0.010606690309941769, -0.01727055199444294, 0.033459678292274475, 0.07397162914276123, 0.01794721931219101, -0.018762456253170967, 0.04509250074625015, 0.027825897559523582, 0.03385774418711662, -0.00768436910584569, -0.0006829738849774003, -0.008678344078361988, -0.02611992321908474, -0.014865304343402386, -0.006564542185515165, 0.025321291759610176, 0.043498098850250244, 0.08371643722057343, 0.026468615978956223, 0.008727192878723145, -0.02664109133183956, 0.006211071275174618, 0.025043409317731857, -0.021758059039711952, 0.025817008689045906, -0.009930138476192951, 0.06560423225164413, -0.01684347353875637, -0.11833450943231583, -0.04288178309798241, -0.01378638669848442, 0.05240783467888832, -0.04798698425292969, -0.017589276656508446, 0.05751093849539757, -0.0015677126357331872, -0.030338697135448456, 0.012231461703777313, 0.031208697706460953, -0.023365143686532974, -0.002374189207330346, 0.03487823158502579, 0.00938965380191803, 0.014776262454688549, 0.02256745845079422, 0.048555586487054825, 0.019191045314073563, -0.018266841769218445, -0.014696198515594006, 0.016031747683882713, 0.04044271633028984, 0.024915866553783417, 0.08122874796390533, 0.0388195663690567, 0.02034008875489235, 0.026255842298269272, -0.027079040184617043, 0.0024286420084536076, -0.1023581251502037, -0.06888346374034882, -0.049424558877944946, 0.015225417912006378, 0.016962874680757523, 0.007925786077976227, 0.02202754281461239, -0.01174130942672491, 0.018855907022953033, -0.026981379836797714, -0.01605769619345665, 0.04045131057500839, -0.006132879294455051, -0.040525488555431366, -0.0784769356250763, -0.020284658297896385, -0.01756836101412773, -0.014776784926652908, -0.05834745243191719, -0.006783799268305302, -0.016037901863455772, 0.055988043546676636, 0.05920518934726715, 0.0570908859372139, 0.010134518146514893, 0.01025399286299944, 0.014714114367961884, -0.023579131811857224, -0.0368894562125206, -0.038026027381420135, -0.010567513294517994, -0.052893854677677155, -0.08661384880542755, 0.010392679832875729, -0.009682181291282177, -0.023897210136055946, 0.03210088610649109, -0.016477070748806, 0.0052126324735581875, 0.0009658419876359403, 0.0212719589471817, -0.07628518342971802, -0.05162743479013443, -0.06723003089427948, -0.06369315832853317, -0.016383228823542595, -0.013763985596597195, 0.01502254232764244, 0.01264549046754837, -0.025621384382247925, -0.014795462600886822, 0.0054444801062345505, 0.06525257229804993, 0.07377716898918152, 0.07638587802648544, 0.021500274538993835, -0.023022063076496124, -0.04159808158874512, 0.024791991338133812, -0.0539134219288826, -0.11945560574531555, -0.020358772948384285, 0.03477995842695236, 0.035869043320417404, -0.009670497849583626, -0.014905876480042934, -0.019151996821165085, -0.018053658306598663, -0.014952272176742554, 0.030870771035552025, -0.08399152010679245, -0.0009150424157269299, 0.0133597981184721, 0.028996333479881287, 0.0023811764549463987, 0.04979698732495308, -0.001942525035701692, 0.03428909182548523, 0.022638419643044472, -0.0015501442831009626, 0.06095661222934723, -0.018113674595952034, -0.039919137954711914, 0.049537502229213715, 0.034222133457660675, 0.0063796923495829105, -0.01935734786093235, -0.024741280823946, -0.09626796841621399, 0.012174096889793873, 0.030317237600684166, -0.007055276073515415, 0.029330747202038765, -0.02327561192214489, -0.0009558183955959976, 0.0246884785592556, 0.0064947945065796375, 0.01218955498188734, -0.016719920560717583, -0.01266658678650856, -0.032070182263851166, 0.08060596138238907, 0.0035718341823667288, 0.023176679387688637, 0.08135775476694107, -0.007089477498084307, 0.013165444135665894, -0.011651886627078056, -0.06798559427261353, -0.10646277666091919, 0.008966435678303242, -0.04785197228193283, 0.01451937947422266, 0.018685217946767807, 0.036381762474775314, 0.021156808361411095, -0.020535336807370186, -0.003962391056120396, 0.04074040800333023, 0.04684368148446083, 0.023585272952914238, -0.0260438472032547, 0.029849950224161148, 0.039358727633953094, -0.018709680065512657, -0.005502401851117611, 0.01849646121263504, -0.006689394824206829, 0.0035448207054287195, 0.06510239094495773, 0.008942042477428913, 0.003607813036069274, 0.008455905131995678, -0.007820844650268555, 0.01662447303533554, 0.003316459245979786, -0.0633661225438118, -0.04759933054447174, -0.026484880596399307, 0.007763054221868515, -0.017646098509430885, 0.05811939388513565, 0.04268611595034599, 0.06824291497468948, 0.08059215545654297, 0.08307597786188126, 0.08188794553279877, 0.007010284811258316, 0.028765637427568436, 0.022255487740039825, 0.004391439724713564, 0.03283737599849701, -0.008316603489220142, 0.05161045491695404, -0.008158869110047817, -0.021493349224328995, 0.006231412291526794, 0.022488847374916077, 0.0057627190835773945, -0.014658967033028603, 0.012842301279306412, 0.0007441166671924293, -0.02155967988073826, 0.08912940323352814, -0.005670715589076281, -0.019356265664100647, -0.03524394333362579, 0.0481085330247879, 0.024369195103645325, 0.01661789044737816, -0.023933518677949905, 0.03364218771457672, 0.07915900647640228, 0.07156160473823547, 0.02246285229921341, 0.04275502264499664, -0.025097966194152832, -0.02721111848950386, 0.017767973244190216, -0.005337373353540897, -0.03069908730685711, 0.10826381295919418, 0.024338524788618088, 0.025986291468143463, 0.03617430850863457, -0.03360942378640175, -0.05111803114414215, -0.08459591120481491, -0.009007025510072708, 0.009550285525619984, 0.009883197955787182, 0.06146566942334175, 0.04808709770441055, -0.01707993820309639, -0.059317078441381454, 0.02531888708472252, -0.019047090783715248, 0.012851051986217499, -0.0028485727962106466, 0.021993465721607208, 0.017964782193303108, 0.0191044919192791, -0.015925738960504532, -0.03267573192715645, 0.019926028326153755, -0.01995272934436798, 0.010469147935509682, 0.020287008956074715, -0.031270746141672134, 0.056667860597372055, 0.0073834615759551525, 0.02523099072277546, -0.017786547541618347, -0.07915855944156647, 0.05612486973404884, -0.04339491203427315, 0.020363328978419304, 0.03997481241822243, 0.07483843713998795, 0.10313474386930466, 0.08397892117500305, -0.006725362967699766, -0.01868457719683647, 0.00011907238513231277, -0.0195010919123888, 0.03190239891409874, 0.03348799794912338, 0.0482928641140461, -0.039734359830617905, -0.019644970074295998, -0.009241264313459396, -0.02464655414223671, 0.021115504205226898, 0.03431869298219681, 0.030401144176721573, 0.01794627495110035, 0.014276528730988503, -0.005797019228339195, -0.11183975636959076, -0.08100998401641846, -0.09328537434339523, -0.044239893555641174, 0.07937630265951157, 0.12210977077484131, 0.09126037359237671, 0.086703822016716, 0.016838671639561653, 0.012520150281488895, 0.02326900325715542, -0.00012650355347432196, -0.011760927736759186, -0.025330092757940292, 0.022098544985055923, 0.04356418550014496, 0.045439474284648895, 0.03647616133093834, 0.008778423070907593, 0.06189965084195137, 0.007371814455837011, 0.022657420486211777, 0.03499450162053108, 0.02751152217388153, 0.02487652562558651, -5.6023527577053756e-05, -0.033027008175849915, -0.10978489369153976, -0.13373728096485138, -0.1634591966867447, -0.15439742803573608, -0.11629880219697952, -0.029603205621242523, 0.08233358711004257, 0.10144191980361938, 0.07056038081645966, -0.009847878478467464, -0.0498039685189724, -0.06311312317848206, -0.011855706572532654, -0.04174633324146271, 0.04531097784638405, -0.013578475452959538, -0.04033213108778, -0.02563421055674553, -0.0038635688833892345, 0.0017435132758691907, 0.07591386139392853, -0.010844054631888866, 0.00023047458671499044, -0.019477026537060738, 0.02671637386083603, -0.001190787646919489, 0.020917661488056183, -0.05712372437119484, -0.07493502646684647, -0.18070806562900543, -0.16616715490818024, -0.1930808424949646, -0.25104397535324097, -0.2649964392185211, -0.19207383692264557, -0.10967647284269333, -0.12799419462680817, -0.21617896854877472, -0.15711407363414764, -0.04126928374171257, -0.07933441549539566, -0.006573978345841169, -0.00272709340788424, -0.007705871481448412, -0.06336865574121475, -0.07549688220024109, -0.053551264107227325, 0.058189813047647476, -0.021324239671230316, -0.026000529527664185, 0.00994153879582882, 0.041048210114240646, -0.016837531700730324, 0.009916260838508606, 0.01983090676367283, 0.0005829313886351883, -0.09753484278917313, -0.20387963950634003, -0.18962500989437103, -0.22868098318576813, -0.36650800704956055, -0.3784850239753723, -0.3687448501586914, -0.38981980085372925, -0.3287326395511627, -0.27826452255249023, -0.11591003835201263, -0.02985915169119835, 0.05617859959602356, -0.03077222779393196, 0.010251850821077824, -0.039788588881492615, -0.011651169508695602, 0.07267645001411438, 0.009387784637510777, -0.021311501041054726, -0.09268330037593842, -0.018254892900586128, 0.023695722222328186, 0.026610082015395164, 0.01772814430296421, -0.012556660920381546, 0.011839044280350208, -0.01872347481548786, -0.09855201840400696, -0.17333680391311646, -0.21086739003658295, -0.15171174705028534, -0.2593599259853363, -0.3014429807662964, -0.37634339928627014, -0.3685394525527954, -0.35432517528533936, -0.21447506546974182, -0.09519445896148682, 0.013941260986030102, 0.02820662409067154, 0.0010479086777195334, -0.031085090711712837, -0.04521867260336876, -0.016345983371138573, 0.06909370422363281, 0.03669779375195503, 0.07892771810293198, -0.02837928757071495, 0.03609665483236313, 0.025495966896414757, 0.018322644755244255, -0.023590005934238434, 0.0046244338154792786, -0.004415351431816816, 0.019246689975261688, -0.0487765409052372, -0.05872466787695885, -0.09054213762283325, -0.03002132475376129, -0.02447347901761532, -0.02507804147899151, -0.06590787321329117, -0.16467849910259247, -0.1524549126625061, -0.06607181578874588, 0.004273624625056982, 0.025033362209796906, 0.012142439372837543, -0.0010716165415942669, 0.041411444544792175, -0.00586359016597271, 0.02360869012773037, 0.02053264155983925, 0.06315705180168152, 0.0821683406829834, 0.01655675284564495, 0.004432095214724541, -0.021144922822713852, -0.00447620777413249, -0.007054423913359642, 0.013862662017345428, 0.003962441347539425, -0.03842781484127045, 0.05435992032289505, 0.04504082724452019, 0.12622018158435822, 0.1694341003894806, 0.14046157896518707, 0.10588076710700989, 0.11857594549655914, 0.06482458114624023, 0.09386690706014633, 0.0701177716255188, 0.04562940075993538, 0.022674499079585075, 0.030078141018748283, 0.03169288486242294, 0.025077415630221367, 0.06441622972488403, 0.011539436876773834, 0.011482274159789085, -0.005896013230085373, 0.017575113102793694, -0.02200750820338726, 0.005569315981119871, -0.025312550365924835, 0.009028316475450993, 0.016622990369796753, -0.0011560018174350262, 0.009885777719318867, 0.015411476604640484, 0.07780207693576813, 0.08465441316366196, 0.12353505194187164, 0.1377367228269577, 0.16993767023086548, 0.0743621289730072, 0.19168837368488312, 0.16263148188591003, 0.1158488318324089, 0.08890702575445175, -0.006707859691232443, -0.005877135321497917, -0.0269780270755291, 0.06897736340761185, 0.0156386848539114, -0.0787731260061264, 0.05361701175570488, -0.04039108008146286, -0.02561846189200878, -0.0279329065233469, -0.011830546893179417, -0.010586818680167198, -0.0038471706211566925, -0.017432954162359238, 0.03313067927956581, 0.013742859475314617, 0.0364999882876873, 0.018723439425230026, 0.14152638614177704, 0.14138895273208618, 0.05905140936374664, 0.08343891054391861, 0.05911820009350777, 0.032670680433511734, 0.1191980168223381, 0.02774343639612198, 0.09477975964546204, 0.046774644404649734, 0.05118577554821968, 0.025647344067692757, -0.011720331385731697, 0.04776792228221893, -0.0365159772336483, -0.12361808121204376, -0.013547969982028008, 0.001164087443612516, 0.013322357088327408, -0.033978354185819626, 0.027538582682609558, 0.025326581671833992, 0.03500721976161003, -0.016304943710565567, 0.03456953167915344, -0.007485833950340748, -0.004609559662640095, -0.008352987468242645, 0.09251337498426437, 0.11265618354082108, 0.11752693355083466, 0.10098402202129364, 0.031153695657849312, 0.05280056223273277, 0.1386946737766266, 0.10536254197359085, 0.08821170032024384, 0.022782713174819946, -0.020752741023898125, 0.012932554818689823, 0.0037354175001382828, 0.014574762433767319, -0.11475104838609695, -0.11136968433856964, -0.0431404672563076, 0.051673371344804764, 0.0002479919930920005, 0.04595918208360672, -0.018572336062788963, -0.00873871985822916, -0.012547236867249012, -0.007395231164991856, 0.03900379315018654, -0.007032589986920357, 0.02063952572643757, 7.295364048331976e-05, 0.05495055764913559, 0.027925174683332443, 0.04780340567231178, -0.012673353776335716, -0.046580925583839417, 0.0622345469892025, 0.05304975062608719, -0.007173438090831041, 0.025235813111066818, 0.071356862783432, 0.0603984072804451, -0.026533203199505806, 0.03632931411266327, 0.04437898471951485, -0.06186165660619736, -0.04908788949251175, 0.00804063118994236, 0.02093176171183586, 0.0008244000491686165, 0.02743072621524334, 0.029403408989310265, 0.04354237765073776, 0.0422460176050663, 0.03911353275179863, 0.002103075385093689, 0.02372654154896736, 0.03663181513547897, -0.018194541335105896, 0.0004523990792222321, 0.044671282172203064, 0.04555049538612366, 0.03764231130480766, -0.008152750320732594, 0.07941228151321411, 0.07021906226873398, 0.0367179699242115, -0.023891093209385872, -0.008466992527246475, 0.04134666919708252, 0.02052869088947773, 0.0713733360171318, 0.05887395516037941, 0.009802144020795822, 0.038634032011032104, 0.0046828510239720345, 0.00909882690757513, 0.013519744388759136, 0.011078685522079468, -0.002276940969750285, 0.041743990033864975, -0.01849685236811638, -0.00822186004370451, 0.0018482522573322058, 0.024748053401708603, -0.026688193902373314, 0.02946305274963379, -0.007798467762768269, -0.018010586500167847, 0.013061867095530033, -0.01923089288175106, -0.026307977735996246, 0.03507634624838829, 3.222158920834772e-05, 0.020563222467899323, -0.01567912846803665, -0.010931048542261124, -0.010022013448178768, -0.012671145610511303, 0.006001672241836786, 0.027730833739042282, 0.009035134688019753, 0.02628902904689312, 0.0347059965133667, -0.010074767284095287, 0.006299032364040613, 0.04249727353453636, 0.03260176628828049, 0.029423817992210388, -0.023081660270690918, 0.0235249325633049], [-0.0199186559766531, -0.029928680509328842, -0.018950412049889565, -9.304407285526395e-05, 0.015078541822731495, -0.022217078134417534, -0.017911292612552643, 0.031935472041368484, 0.02460481971502304, 0.03327811881899834, 0.03447326645255089, -0.030524391680955887, 0.014700167812407017, 0.018555618822574615, 0.003530319081619382, -0.02283775620162487, 0.03115554340183735, 0.01147997286170721, 0.035252463072538376, -0.029154550284147263, -0.030511703342199326, -0.0057461741380393505, 0.00196612230502069, -0.020910389721393585, -0.021611502394080162, 0.0035546880681067705, -0.020943790674209595, -0.015327413566410542, -0.023684753105044365, 0.01313723810017109, 0.023469766601920128, 0.009940712712705135, 0.003803724655881524, -0.025527341291308403, 0.02010280080139637, 0.032362330704927444, -0.0042260210029780865, 0.021247394382953644, -0.023867346346378326, -0.012105817906558514, 0.01928780972957611, -0.01581801101565361, -0.004605793859809637, -0.0065060085617005825, 0.02000025101006031, -0.01823810301721096, -0.013404127210378647, -0.03447531536221504, -0.025919722393155098, -0.030825069174170494, 0.002001931658014655, 0.024720266461372375, 0.015322193503379822, -0.02234763465821743, 0.011964905075728893, -0.016068702563643456, 0.024756722152233124, 0.03004816360771656, -0.02127458155155182, -0.023806333541870117, -0.0030547871720045805, -0.0003796009987127036, 0.016702814027667046, -0.021561414003372192, -0.012700004503130913, -0.021193817257881165, -0.028877831995487213, -0.03564821183681488, -0.05437001585960388, -0.03680308163166046, -0.08716751635074615, -0.08327377587556839, -0.034631721675395966, -0.03424956649541855, 0.029254969209432602, 0.017217177897691727, 0.034673988819122314, -0.029238780960440636, -0.0037742238491773605, -0.028233306482434273, -0.03198106959462166, -0.0011746676173061132, -0.022251073271036148, -0.027137896046042442, 0.021208006888628006, 0.005545588675886393, -0.01718350686132908, -0.027971239760518074, 0.029992423951625824, 0.0053148092702031136, 0.03414655476808548, 0.004012405406683683, 0.038523055613040924, -0.020071662962436676, -0.03813387453556061, -0.04751446470618248, -0.019359417259693146, 0.011717364192008972, -0.029588930308818817, -0.07295215874910355, -0.07376366853713989, -0.05570700392127037, -0.045157983899116516, -0.03638484701514244, -0.0037722978740930557, 0.02768135629594326, 0.033673837780952454, 0.04523155093193054, 0.0008686547516845167, 0.024261092767119408, -0.008432754315435886, 0.018877608701586723, -0.025698639452457428, -0.010102644562721252, 0.032952867448329926, 0.029514998197555542, -0.02654671110212803, 0.006249609868973494, 0.01769843138754368, 0.014395982027053833, 0.08732953667640686, 0.10775990039110184, 0.09037357568740845, 0.03458346053957939, -0.0036974477116018534, 0.025343487039208412, 0.024906182661652565, -0.005594010930508375, 0.07989981770515442, 0.06356266885995865, 0.03606526181101799, 0.05467294156551361, 0.09148073196411133, 0.03823458030819893, 0.06725778430700302, 0.04264456033706665, 0.04555142670869827, -0.008848050609230995, -0.012076384387910366, 0.03307715430855751, -0.025049829855561256, -0.018545350059866905, -0.017075302079319954, -0.008644193410873413, 0.0451410673558712, 0.008174688555300236, 0.039973434060811996, 0.06193557009100914, 0.02113509178161621, 0.03806956857442856, 0.014401794411242008, -0.030904268845915794, -0.000962944992352277, 0.08383948355913162, 0.0803464725613594, 0.06728772073984146, 0.10018958151340485, 0.09269832074642181, 0.0583299919962883, 0.06688840687274933, 0.02965933084487915, 0.11962591856718063, 0.05272294953465462, 0.07378704100847244, 0.027034897357225418, 0.02420569770038128, -0.011674297042191029, -0.01454868633300066, 0.0236614141613245, 0.0029642488807439804, 0.0038216174580156803, -0.0047559067606925964, 0.03905230015516281, 0.09229439496994019, 0.059592023491859436, 0.05015677958726883, 0.041894443333148956, 0.031749479472637177, -0.023254485800862312, 0.042068399488925934, 0.031259845942258835, 0.058260153979063034, 0.10519015789031982, 0.08035110682249069, 0.08281641453504562, 0.05819321423768997, 0.013941114768385887, -0.031270742416381836, -0.0312872938811779, -0.04845700040459633, -0.018067175522446632, 0.02204153686761856, -0.01629997417330742, 0.03715769574046135, 0.03223315626382828, 0.03296506777405739, 0.02112979255616665, 0.02365981787443161, -0.009998599998652935, -0.0005434651393443346, 0.11339330673217773, 0.07615550607442856, -0.007778385188430548, 0.09050311148166656, 0.11060913652181625, -0.03893579915165901, -0.0313279926776886, -0.003269144566729665, 0.012655076570808887, 0.07823541015386581, 0.019277535378932953, 0.05918680131435394, 0.0717843621969223, -0.016802234575152397, 0.011967808939516544, -0.05685222148895264, -0.07822941988706589, -0.11901729553937912, -0.06397949904203415, -0.030902352184057236, -0.011233780533075333, -0.0072349561378359795, 0.02758985571563244, -0.030725916847586632, 0.017844296991825104, 0.03512049466371536, 0.013876395300030708, -0.012388480827212334, 0.07355568557977676, 0.05306573212146759, 0.010903424583375454, -0.013627839274704456, 0.022669551894068718, 0.02150791324675083, 0.0015352850314229727, 0.06609927862882614, 0.05711192265152931, 0.0912528783082962, 0.01094834879040718, -0.08058770000934601, -0.08435336500406265, -0.1105566993355751, -0.021512635052204132, -0.043355949223041534, -0.17187979817390442, -0.2075154036283493, -0.07818983495235443, -0.05948078632354736, -0.0408664233982563, 0.025195037946105003, -0.019704332575201988, 0.027976807206869125, 0.013381523080170155, 0.03360435739159584, 0.02618911862373352, -0.05062994360923767, -0.020064346492290497, 0.06370899826288223, 0.0018950356170535088, -0.014723234809935093, 0.01795457862317562, 0.07774396240711212, 0.08532612025737762, 0.051195450127124786, 0.03392665833234787, 0.010684673674404621, -0.11181637644767761, -0.14212146401405334, -0.1074010580778122, -0.021063702180981636, -0.03992828354239464, 0.0008007205324247479, -0.10759202390909195, -0.1313934475183487, -0.1324538290500641, -0.055393584072589874, 0.02724306471645832, 0.06318157911300659, 0.045109521597623825, 0.002245793817564845, 0.006093927659094334, -0.007596415467560291, -0.03247480094432831, -0.013684416189789772, 0.00699949823319912, 0.10874974727630615, 0.1237747073173523, 0.11098718643188477, 0.09419605135917664, 0.1314617544412613, 0.08070823550224304, 0.05116588622331619, 0.036737389862537384, -0.08590931445360184, -0.09316108375787735, -0.08986744284629822, -0.022424064576625824, 0.0284856129437685, -0.005042496602982283, 0.022208983078598976, -0.05674958601593971, -0.0241661686450243, -0.09971573203802109, -0.07850287854671478, 0.011262020096182823, 0.0518885999917984, 0.001315249945037067, 0.020936548709869385, 0.019533853977918625, -0.0001434284495189786, -0.03893358260393143, 0.0026152622886002064, 0.024248821660876274, 0.09087201952934265, 0.05868864431977272, 0.09814037382602692, 0.009588722139596939, 0.030258066952228546, -0.024336036294698715, -0.05905693396925926, -0.058112747967243195, -0.10254091769456863, -0.08028997480869293, -0.03121139667928219, -0.0026111025363206863, 0.01032312586903572, 0.01844864711165428, -0.01973559707403183, -0.027733521535992622, -0.00780896469950676, -0.08280981332063675, -0.043758366256952286, 0.028135251253843307, 0.007696022745221853, 0.035237740725278854, -0.005600727163255215, -0.01953374408185482, 0.03510580584406853, -0.007073582150042057, 0.02597113512456417, 0.05777062103152275, 0.04859377071261406, 0.040172357112169266, -0.04900955408811569, -0.11579110473394394, -0.07866111397743225, -0.05882388353347778, -0.16779902577400208, -0.1370299756526947, -0.12201987951993942, 0.012166357599198818, -0.0027925504837185144, 0.03866970166563988, 0.007663153577595949, -0.07058253884315491, 0.018493151292204857, 0.0794055163860321, 0.06918636709451675, 0.023015478625893593, -0.00452381419017911, -0.02952503226697445, -0.0009813194628804922, -0.02444986253976822, -0.01396428793668747, 0.0359041802585125, 0.01315072737634182, 0.02765810303390026, 0.016490262001752853, -0.04925059154629707, -0.02093116194009781, -0.07775352150201797, -0.1566281020641327, -0.17755737900733948, -0.15040384232997894, -0.18044380843639374, -0.12188247591257095, -0.05979754030704498, 0.014290655963122845, 0.03899805247783661, -0.03034539893269539, -0.023317713290452957, 0.09937647730112076, 0.02124512381851673, -0.01704244688153267, 0.11978942900896072, 0.10430394858121872, 0.05591462552547455, -0.005918964743614197, 0.0269959457218647, 0.005970928352326155, 0.035551395267248154, 0.02437482215464115, -0.013130179606378078, -0.002356567420065403, 0.014801218174397945, 0.001369322999380529, -0.10625579208135605, -0.1760302484035492, -0.1514289528131485, -0.20161114633083344, -0.22603653371334076, -0.1888854205608368, -0.11249339580535889, -0.10847976803779602, -0.04623895511031151, 0.0382905974984169, 0.04233645275235176, 0.007005804218351841, 0.05807017162442207, 0.020064622163772583, -0.05612814426422119, -0.06839320063591003, -0.026314854621887207, -0.014602583833038807, -0.026442743837833405, 0.011155632324516773, -0.02696605958044529, -0.019151262938976288, 0.010837641544640064, -0.009594573639333248, 0.0296164583414793, 0.012775194831192493, 0.0066919042728841305, -0.017695292830467224, -0.0924191102385521, -0.15171808004379272, -0.2247466892004013, -0.22252517938613892, -0.19320815801620483, -0.12053531408309937, -0.037092383950948715, -0.03796464204788208, -0.01812012493610382, 0.07118408381938934, 0.04854798689484596, 0.06341850012540817, 0.04116971045732498, -0.06422490626573563, -0.06862056255340576, -0.035644739866256714, -0.0711628645658493, -0.05173668637871742, -0.07369998842477798, -0.08072705566883087, 0.03308272734284401, 0.007904792204499245, 0.033518992364406586, -0.026251301169395447, -0.003466635476797819, 0.015069308690726757, -0.03338703140616417, -0.025402843952178955, -0.0902552679181099, -0.16712521016597748, -0.17519095540046692, -0.1344241499900818, -0.15093927085399628, -0.09201643615961075, -0.06906574219465256, -0.07981196790933609, 0.03130551055073738, 0.10215959697961807, 0.07711925357580185, 0.10991126298904419, 0.031398214399814606, -0.0030743125826120377, -0.05499506741762161, 0.011590907350182533, -0.051439426839351654, 0.0033090722281485796, 0.021295133978128433, -0.06680002063512802, 0.0387008897960186, 0.010762388817965984, -0.015835542231798172, -0.018416469916701317, 0.032866064459085464, -0.025825582444667816, -0.0026404892560094595, 0.02992888353765011, -0.09327332675457001, -0.11010555177927017, -0.09781751036643982, -0.06301452219486237, 0.001706019276753068, -0.06384967267513275, -0.06246914714574814, -0.0009972876869142056, 0.04748077690601349, 0.07348775863647461, 0.030517861247062683, 0.056380096822977066, -0.02097129449248314, 0.009447225369513035, 0.05197949334979057, 0.08044374734163284, -0.00959180947393179, -0.034488290548324585, -0.039507657289505005, -0.045140769332647324, -0.007562081795185804, -0.02420218475162983, -0.031822800636291504, -0.008916850201785564, -0.020013822242617607, -0.02540028840303421, 0.024057958275079727, 0.00807545892894268, -0.05204016715288162, -0.043050818145275116, -0.05782986059784889, 0.04718811810016632, 0.0217218566685915, -0.09689601510763168, -0.01223211269825697, 0.0027082976885139942, 0.07624632120132446, 0.01807643659412861, -0.046807583421468735, -0.007158902008086443, 0.05896306782960892, 0.06776415556669235, 0.019370941445231438, 0.037757329642772675, -0.02578994259238243, -0.0858151838183403, -0.015737108886241913, 0.01687806099653244, -0.009330635890364647, 0.007028966676443815, 0.019950153306126595, -0.013755887746810913, 0.005930640734732151, 0.02170901745557785, 0.031135115772485733, -0.03065773844718933, -0.03305681794881821, -0.0036501612048596144, 0.07640600949525833, 0.07379846274852753, -0.04444669559597969, -0.05062048137187958, 0.03454208001494408, 0.05361297354102135, 0.0497056283056736, 0.016896044835448265, -0.007796855177730322, 0.010144309140741825, 0.030649513006210327, 0.11630286276340485, 0.03747042268514633, 0.01552832592278719, -0.0022422135807573795, -0.07517048716545105, -0.030978379771113396, 0.05295932665467262, 0.016728775575757027, -0.03416905552148819, 0.010741345584392548, -0.03394173085689545, -0.014234413392841816, 0.018036672845482826, -0.0013430414255708456, -0.009167082607746124, 0.012191207148134708, 0.03813689947128296, 0.0686802938580513, 0.0984582006931305, 0.02890741638839245, 0.0394727922976017, 0.010199068114161491, 0.013876786455512047, 0.01834948919713497, 0.0050208549946546555, -0.008086222223937511, 0.04911993443965912, 0.048783622682094574, -0.0028574911411851645, 0.018979238346219063, -0.0243326798081398, 0.008632729761302471, 0.01884637400507927, 0.015756582841277122, 0.049954622983932495, -0.0030379770323634148, -0.01244371384382248, -0.003671430516988039, 0.02544451504945755, 0.0003107164229732007, -0.023254411295056343, 0.020972229540348053, 0.016048697754740715, -0.028680900111794472, -0.025700096040964127, 0.06509222090244293, 0.04802507907152176, 0.047387540340423584, 0.033569127321243286, 0.0579724945127964, -0.02453111670911312, 0.0016233609057962894, 0.08352697640657425, 0.04850860685110092, 0.03673207387328148, -0.0060455212369561195, -0.026439890265464783, -0.039802584797143936, -0.07610807567834854, -0.04925411567091942, 0.006949054077267647, 0.051128122955560684, 0.04904330521821976, -0.002247232012450695, -0.036079663783311844, 0.019317885860800743, 0.032828595489263535, -0.009216292761266232, -0.02576310746371746, 0.03496842831373215, -0.01308992225676775, 0.02769598923623562, 0.004520261660218239, 0.06987545639276505, 0.08684130758047104, 0.06797643005847931, 0.027645839378237724, 0.07287991046905518, 0.09486847370862961, 0.03795861452817917, 0.05562740936875343, 0.051457829773426056, 0.003770093899220228, -0.026596717536449432, -0.023316416889429092, -0.040833160281181335, -0.09145420789718628, 0.006039643194526434, 0.09685996174812317, 0.06111932918429375, 0.027609776705503464, 0.017043281346559525, -0.012025590054690838, -0.0103643499314785, -0.03313823789358139, 0.010060667060315609, 0.01512735802680254, 0.02601485699415207, 0.02440488710999489, 0.05133939906954765, 0.05330507829785347, -0.011695316061377525, 0.05660933628678322, 0.10678460448980331, 0.03106360323727131, 0.02210797555744648, 0.08709237724542618, 0.01888149045407772, 0.019257236272096634, -0.01945350505411625, 0.047281425446271896, 0.03564199432730675, 0.018472345545887947, -0.040533747524023056, -0.020374886691570282, 0.03763026371598244, 0.09319479763507843, 0.03723285347223282, 0.049967240542173386, -0.003846555482596159, 0.020645923912525177, -0.025209873914718628, 0.03355199471116066, -0.02437424100935459, 